version: 100
cost-factor: 1
maxid: 11970
xsize: 238

0
1

U0:%x[0,0]
U1:%x[0,0]%x[0,1]
U2:%x[0,0]%x[0,16]
U3:%x[0,1]
U4:%x[0,1]%x[0,2]
U5:%x[0,1]%x[0,15]
U6:%x[0,2]
U7:%x[0,2]%x[0,3]
U8:%x[0,2]%x[0,14]
U9:%x[0,3]
U10:%x[0,3]%x[0,4]
U11:%x[0,3]%x[0,13]
U12:%x[0,4]
U13:%x[0,4]%x[0,5]
U14:%x[0,4]%x[0,12]
U15:%x[0,5]
U16:%x[0,5]%x[0,6]
U17:%x[0,5]%x[0,11]
U18:%x[0,6]
U19:%x[0,6]%x[0,7]
U20:%x[0,6]%x[0,10]
U21:%x[0,7]
U22:%x[0,7]%x[0,8]
U23:%x[0,7]%x[0,9]
U24:%x[0,8]
U25:%x[0,8]%x[0,9]
U26:%x[0,9]
U27:%x[0,9]%x[0,10]
U28:%x[0,10]
U29:%x[0,10]%x[0,11]
U30:%x[0,11]
U31:%x[0,11]%x[0,12]
U32:%x[0,12]
U33:%x[0,12]%x[0,13]
U34:%x[0,13]
U35:%x[0,13]%x[0,14]
U36:%x[0,14]
U37:%x[0,14]%x[0,15]
U38:%x[0,15]
U39:%x[0,15]%x[0,16]
U40:%x[0,16]
U41:%x[0,16]%x[0,17]
U42:%x[0,17]
U43:%x[0,17]%x[0,18]
U44:%x[0,17]%x[0,33]
U45:%x[0,18]
U46:%x[0,18]%x[0,19]
U47:%x[0,18]%x[0,32]
U48:%x[0,19]
U49:%x[0,19]%x[0,20]
U50:%x[0,19]%x[0,31]
U51:%x[0,20]
U52:%x[0,20]%x[0,21]
U53:%x[0,20]%x[0,30]
U54:%x[0,21]
U55:%x[0,21]%x[0,22]
U56:%x[0,21]%x[0,29]
U57:%x[0,22]
U58:%x[0,22]%x[0,23]
U59:%x[0,22]%x[0,28]
U60:%x[0,23]
U61:%x[0,23]%x[0,24]
U62:%x[0,23]%x[0,27]
U63:%x[0,24]
U64:%x[0,24]%x[0,25]
U65:%x[0,24]%x[0,26]
U66:%x[0,25]
U67:%x[0,25]%x[0,26]
U68:%x[0,26]
U69:%x[0,26]%x[0,27]
U70:%x[0,27]
U71:%x[0,27]%x[0,28]
U72:%x[0,28]
U73:%x[0,28]%x[0,29]
U74:%x[0,29]
U75:%x[0,29]%x[0,30]
U76:%x[0,30]
U77:%x[0,30]%x[0,31]
U78:%x[0,31]
U79:%x[0,31]%x[0,32]
U80:%x[0,32]
U81:%x[0,32]%x[0,33]
U82:%x[0,33]
U83:%x[0,33]%x[0,34]
U84:%x[0,34]
U85:%x[0,34]%x[0,35]
U86:%x[0,34]%x[0,50]
U87:%x[0,35]
U88:%x[0,35]%x[0,36]
U89:%x[0,35]%x[0,49]
U90:%x[0,36]
U91:%x[0,36]%x[0,37]
U92:%x[0,36]%x[0,48]
U93:%x[0,37]
U94:%x[0,37]%x[0,38]
U95:%x[0,37]%x[0,47]
U96:%x[0,38]
U97:%x[0,38]%x[0,39]
U98:%x[0,38]%x[0,46]
U99:%x[0,39]
U100:%x[0,39]%x[0,40]
U101:%x[0,39]%x[0,45]
U102:%x[0,40]
U103:%x[0,40]%x[0,41]
U104:%x[0,40]%x[0,44]
U105:%x[0,41]
U106:%x[0,41]%x[0,42]
U107:%x[0,41]%x[0,43]
U108:%x[0,42]
U109:%x[0,42]%x[0,43]
U110:%x[0,43]
U111:%x[0,43]%x[0,44]
U112:%x[0,44]
U113:%x[0,44]%x[0,45]
U114:%x[0,45]
U115:%x[0,45]%x[0,46]
U116:%x[0,46]
U117:%x[0,46]%x[0,47]
U118:%x[0,47]
U119:%x[0,47]%x[0,48]
U120:%x[0,48]
U121:%x[0,48]%x[0,49]
U122:%x[0,49]
U123:%x[0,49]%x[0,50]
U124:%x[0,50]
U125:%x[0,50]%x[0,51]
U126:%x[0,51]
U127:%x[0,51]%x[0,52]
U128:%x[0,51]%x[0,67]
U129:%x[0,52]
U130:%x[0,52]%x[0,53]
U131:%x[0,52]%x[0,66]
U132:%x[0,53]
U133:%x[0,53]%x[0,54]
U134:%x[0,53]%x[0,65]
U135:%x[0,54]
U136:%x[0,54]%x[0,55]
U137:%x[0,54]%x[0,64]
U138:%x[0,55]
U139:%x[0,55]%x[0,56]
U140:%x[0,55]%x[0,63]
U141:%x[0,56]
U142:%x[0,56]%x[0,57]
U143:%x[0,56]%x[0,62]
U144:%x[0,57]
U145:%x[0,57]%x[0,58]
U146:%x[0,57]%x[0,61]
U147:%x[0,58]
U148:%x[0,58]%x[0,59]
U149:%x[0,58]%x[0,60]
U150:%x[0,59]
U151:%x[0,59]%x[0,60]
U152:%x[0,60]
U153:%x[0,60]%x[0,61]
U154:%x[0,61]
U155:%x[0,61]%x[0,62]
U156:%x[0,62]
U157:%x[0,62]%x[0,63]
U158:%x[0,63]
U159:%x[0,63]%x[0,64]
U160:%x[0,64]
U161:%x[0,64]%x[0,65]
U162:%x[0,65]
U163:%x[0,65]%x[0,66]
U164:%x[0,66]
U165:%x[0,66]%x[0,67]
U166:%x[0,67]
U167:%x[0,67]%x[0,68]
U168:%x[0,68]
U169:%x[0,68]%x[0,69]
U170:%x[0,68]%x[0,84]
U171:%x[0,69]
U172:%x[0,69]%x[0,70]
U173:%x[0,69]%x[0,83]
U174:%x[0,70]
U175:%x[0,70]%x[0,71]
U176:%x[0,70]%x[0,82]
U177:%x[0,71]
U178:%x[0,71]%x[0,72]
U179:%x[0,71]%x[0,81]
U180:%x[0,72]
U181:%x[0,72]%x[0,73]
U182:%x[0,72]%x[0,80]
U183:%x[0,73]
U184:%x[0,73]%x[0,74]
U185:%x[0,73]%x[0,79]
U186:%x[0,74]
U187:%x[0,74]%x[0,75]
U188:%x[0,74]%x[0,78]
U189:%x[0,75]
U190:%x[0,75]%x[0,76]
U191:%x[0,75]%x[0,77]
U192:%x[0,76]
U193:%x[0,76]%x[0,77]
U194:%x[0,77]
U195:%x[0,77]%x[0,78]
U196:%x[0,78]
U197:%x[0,78]%x[0,79]
U198:%x[0,79]
U199:%x[0,79]%x[0,80]
U200:%x[0,80]
U201:%x[0,80]%x[0,81]
U202:%x[0,81]
U203:%x[0,81]%x[0,82]
U204:%x[0,82]
U205:%x[0,82]%x[0,83]
U206:%x[0,83]
U207:%x[0,83]%x[0,84]
U208:%x[0,84]
U209:%x[0,84]%x[0,85]
U210:%x[0,85]
U211:%x[0,85]%x[0,86]
U212:%x[0,85]%x[0,101]
U213:%x[0,86]
U214:%x[0,86]%x[0,87]
U215:%x[0,86]%x[0,100]
U216:%x[0,87]
U217:%x[0,87]%x[0,88]
U218:%x[0,87]%x[0,99]
U219:%x[0,88]
U220:%x[0,88]%x[0,89]
U221:%x[0,88]%x[0,98]
U222:%x[0,89]
U223:%x[0,89]%x[0,90]
U224:%x[0,89]%x[0,97]
U225:%x[0,90]
U226:%x[0,90]%x[0,91]
U227:%x[0,90]%x[0,96]
U228:%x[0,91]
U229:%x[0,91]%x[0,92]
U230:%x[0,91]%x[0,95]
U231:%x[0,92]
U232:%x[0,92]%x[0,93]
U233:%x[0,92]%x[0,94]
U234:%x[0,93]
U235:%x[0,93]%x[0,94]
U236:%x[0,94]
U237:%x[0,94]%x[0,95]
U238:%x[0,95]
U239:%x[0,95]%x[0,96]
U240:%x[0,96]
U241:%x[0,96]%x[0,97]
U242:%x[0,97]
U243:%x[0,97]%x[0,98]
U244:%x[0,98]
U245:%x[0,98]%x[0,99]
U246:%x[0,99]
U247:%x[0,99]%x[0,100]
U248:%x[0,100]
U249:%x[0,100]%x[0,101]
U250:%x[0,101]
U251:%x[0,101]%x[0,102]
U252:%x[0,102]
U253:%x[0,102]%x[0,103]
U254:%x[0,102]%x[0,118]
U255:%x[0,103]
U256:%x[0,103]%x[0,104]
U257:%x[0,103]%x[0,117]
U258:%x[0,104]
U259:%x[0,104]%x[0,105]
U260:%x[0,104]%x[0,116]
U261:%x[0,105]
U262:%x[0,105]%x[0,106]
U263:%x[0,105]%x[0,115]
U264:%x[0,106]
U265:%x[0,106]%x[0,107]
U266:%x[0,106]%x[0,114]
U267:%x[0,107]
U268:%x[0,107]%x[0,108]
U269:%x[0,107]%x[0,113]
U270:%x[0,108]
U271:%x[0,108]%x[0,109]
U272:%x[0,108]%x[0,112]
U273:%x[0,109]
U274:%x[0,109]%x[0,110]
U275:%x[0,109]%x[0,111]
U276:%x[0,110]
U277:%x[0,110]%x[0,111]
U278:%x[0,111]
U279:%x[0,111]%x[0,112]
U280:%x[0,112]
U281:%x[0,112]%x[0,113]
U282:%x[0,113]
U283:%x[0,113]%x[0,114]
U284:%x[0,114]
U285:%x[0,114]%x[0,115]
U286:%x[0,115]
U287:%x[0,115]%x[0,116]
U288:%x[0,116]
U289:%x[0,116]%x[0,117]
U290:%x[0,117]
U291:%x[0,117]%x[0,118]
U292:%x[0,118]
U293:%x[0,118]%x[0,119]
U294:%x[0,119]
U295:%x[0,119]%x[0,120]
U296:%x[0,119]%x[0,135]
U297:%x[0,120]
U298:%x[0,120]%x[0,121]
U299:%x[0,120]%x[0,134]
U300:%x[0,121]
U301:%x[0,121]%x[0,122]
U302:%x[0,121]%x[0,133]
U303:%x[0,122]
U304:%x[0,122]%x[0,123]
U305:%x[0,122]%x[0,132]
U306:%x[0,123]
U307:%x[0,123]%x[0,124]
U308:%x[0,123]%x[0,131]
U309:%x[0,124]
U310:%x[0,124]%x[0,125]
U311:%x[0,124]%x[0,130]
U312:%x[0,125]
U313:%x[0,125]%x[0,126]
U314:%x[0,125]%x[0,129]
U315:%x[0,126]
U316:%x[0,126]%x[0,127]
U317:%x[0,126]%x[0,128]
U318:%x[0,127]
U319:%x[0,127]%x[0,128]
U320:%x[0,128]
U321:%x[0,128]%x[0,129]
U322:%x[0,129]
U323:%x[0,129]%x[0,130]
U324:%x[0,130]
U325:%x[0,130]%x[0,131]
U326:%x[0,131]
U327:%x[0,131]%x[0,132]
U328:%x[0,132]
U329:%x[0,132]%x[0,133]
U330:%x[0,133]
U331:%x[0,133]%x[0,134]
U332:%x[0,134]
U333:%x[0,134]%x[0,135]
U334:%x[0,135]
U335:%x[0,135]%x[0,136]
U336:%x[0,136]
U337:%x[0,136]%x[0,137]
U338:%x[0,136]%x[0,152]
U339:%x[0,137]
U340:%x[0,137]%x[0,138]
U341:%x[0,137]%x[0,151]
U342:%x[0,138]
U343:%x[0,138]%x[0,139]
U344:%x[0,138]%x[0,150]
U345:%x[0,139]
U346:%x[0,139]%x[0,140]
U347:%x[0,139]%x[0,149]
U348:%x[0,140]
U349:%x[0,140]%x[0,141]
U350:%x[0,140]%x[0,148]
U351:%x[0,141]
U352:%x[0,141]%x[0,142]
U353:%x[0,141]%x[0,147]
U354:%x[0,142]
U355:%x[0,142]%x[0,143]
U356:%x[0,142]%x[0,146]
U357:%x[0,143]
U358:%x[0,143]%x[0,144]
U359:%x[0,143]%x[0,145]
U360:%x[0,144]
U361:%x[0,144]%x[0,145]
U362:%x[0,145]
U363:%x[0,145]%x[0,146]
U364:%x[0,146]
U365:%x[0,146]%x[0,147]
U366:%x[0,147]
U367:%x[0,147]%x[0,148]
U368:%x[0,148]
U369:%x[0,148]%x[0,149]
U370:%x[0,149]
U371:%x[0,149]%x[0,150]
U372:%x[0,150]
U373:%x[0,150]%x[0,151]
U374:%x[0,151]
U375:%x[0,151]%x[0,152]
U376:%x[0,152]
U377:%x[0,152]%x[0,153]
U378:%x[0,153]
U379:%x[0,153]%x[0,154]
U380:%x[0,153]%x[0,169]
U381:%x[0,154]
U382:%x[0,154]%x[0,155]
U383:%x[0,154]%x[0,168]
U384:%x[0,155]
U385:%x[0,155]%x[0,156]
U386:%x[0,155]%x[0,167]
U387:%x[0,156]
U388:%x[0,156]%x[0,157]
U389:%x[0,156]%x[0,166]
U390:%x[0,157]
U391:%x[0,157]%x[0,158]
U392:%x[0,157]%x[0,165]
U393:%x[0,158]
U394:%x[0,158]%x[0,159]
U395:%x[0,158]%x[0,164]
U396:%x[0,159]
U397:%x[0,159]%x[0,160]
U398:%x[0,159]%x[0,163]
U399:%x[0,160]
U400:%x[0,160]%x[0,161]
U401:%x[0,160]%x[0,162]
U402:%x[0,161]
U403:%x[0,161]%x[0,162]
U404:%x[0,162]
U405:%x[0,162]%x[0,163]
U406:%x[0,163]
U407:%x[0,163]%x[0,164]
U408:%x[0,164]
U409:%x[0,164]%x[0,165]
U410:%x[0,165]
U411:%x[0,165]%x[0,166]
U412:%x[0,166]
U413:%x[0,166]%x[0,167]
U414:%x[0,167]
U415:%x[0,167]%x[0,168]
U416:%x[0,168]
U417:%x[0,168]%x[0,169]
U418:%x[0,169]
U419:%x[0,169]%x[0,170]
U420:%x[0,170]
U421:%x[0,170]%x[0,171]
U422:%x[0,170]%x[0,186]
U423:%x[0,171]
U424:%x[0,171]%x[0,172]
U425:%x[0,171]%x[0,185]
U426:%x[0,172]
U427:%x[0,172]%x[0,173]
U428:%x[0,172]%x[0,184]
U429:%x[0,173]
U430:%x[0,173]%x[0,174]
U431:%x[0,173]%x[0,183]
U432:%x[0,174]
U433:%x[0,174]%x[0,175]
U434:%x[0,174]%x[0,182]
U435:%x[0,175]
U436:%x[0,175]%x[0,176]
U437:%x[0,175]%x[0,181]
U438:%x[0,176]
U439:%x[0,176]%x[0,177]
U440:%x[0,176]%x[0,180]
U441:%x[0,177]
U442:%x[0,177]%x[0,178]
U443:%x[0,177]%x[0,179]
U444:%x[0,178]
U445:%x[0,178]%x[0,179]
U446:%x[0,179]
U447:%x[0,179]%x[0,180]
U448:%x[0,180]
U449:%x[0,180]%x[0,181]
U450:%x[0,181]
U451:%x[0,181]%x[0,182]
U452:%x[0,182]
U453:%x[0,182]%x[0,183]
U454:%x[0,183]
U455:%x[0,183]%x[0,184]
U456:%x[0,184]
U457:%x[0,184]%x[0,185]
U458:%x[0,185]
U459:%x[0,185]%x[0,186]
U460:%x[0,186]
U461:%x[0,186]%x[0,187]
U462:%x[0,187]
U463:%x[0,187]%x[0,188]
U464:%x[0,187]%x[0,203]
U465:%x[0,188]
U466:%x[0,188]%x[0,189]
U467:%x[0,188]%x[0,202]
U468:%x[0,189]
U469:%x[0,189]%x[0,190]
U470:%x[0,189]%x[0,201]
U471:%x[0,190]
U472:%x[0,190]%x[0,191]
U473:%x[0,190]%x[0,200]
U474:%x[0,191]
U475:%x[0,191]%x[0,192]
U476:%x[0,191]%x[0,199]
U477:%x[0,192]
U478:%x[0,192]%x[0,193]
U479:%x[0,192]%x[0,198]
U480:%x[0,193]
U481:%x[0,193]%x[0,194]
U482:%x[0,193]%x[0,197]
U483:%x[0,194]
U484:%x[0,194]%x[0,195]
U485:%x[0,194]%x[0,196]
U486:%x[0,195]
U487:%x[0,195]%x[0,196]
U488:%x[0,196]
U489:%x[0,196]%x[0,197]
U490:%x[0,197]
U491:%x[0,197]%x[0,198]
U492:%x[0,198]
U493:%x[0,198]%x[0,199]
U494:%x[0,199]
U495:%x[0,199]%x[0,200]
U496:%x[0,200]
U497:%x[0,200]%x[0,201]
U498:%x[0,201]
U499:%x[0,201]%x[0,202]
U500:%x[0,202]
U501:%x[0,202]%x[0,203]
U502:%x[0,203]
U503:%x[0,203]%x[0,204]
U504:%x[0,204]
U505:%x[0,204]%x[0,205]
U506:%x[0,204]%x[0,220]
U507:%x[0,205]
U508:%x[0,205]%x[0,206]
U509:%x[0,205]%x[0,219]
U510:%x[0,206]
U511:%x[0,206]%x[0,207]
U512:%x[0,206]%x[0,218]
U513:%x[0,207]
U514:%x[0,207]%x[0,208]
U515:%x[0,207]%x[0,217]
U516:%x[0,208]
U517:%x[0,208]%x[0,209]
U518:%x[0,208]%x[0,216]
U519:%x[0,209]
U520:%x[0,209]%x[0,210]
U521:%x[0,209]%x[0,215]
U522:%x[0,210]
U523:%x[0,210]%x[0,211]
U524:%x[0,210]%x[0,214]
U525:%x[0,211]
U526:%x[0,211]%x[0,212]
U527:%x[0,211]%x[0,213]
U528:%x[0,212]
U529:%x[0,212]%x[0,213]
U530:%x[0,213]
U531:%x[0,213]%x[0,214]
U532:%x[0,214]
U533:%x[0,214]%x[0,215]
U534:%x[0,215]
U535:%x[0,215]%x[0,216]
U536:%x[0,216]
U537:%x[0,216]%x[0,217]
U538:%x[0,217]
U539:%x[0,217]%x[0,218]
U540:%x[0,218]
U541:%x[0,218]%x[0,219]
U542:%x[0,219]
U543:%x[0,219]%x[0,220]
U544:%x[0,220]
U545:%x[0,220]%x[0,221]
U546:%x[0,221]
U547:%x[0,221]%x[0,222]
U548:%x[0,221]%x[0,237]
U549:%x[0,222]
U550:%x[0,222]%x[0,223]
U551:%x[0,222]%x[0,236]
U552:%x[0,223]
U553:%x[0,223]%x[0,224]
U554:%x[0,223]%x[0,235]
U555:%x[0,224]
U556:%x[0,224]%x[0,225]
U557:%x[0,224]%x[0,234]
U558:%x[0,225]
U559:%x[0,225]%x[0,226]
U560:%x[0,225]%x[0,233]
U561:%x[0,226]
U562:%x[0,226]%x[0,227]
U563:%x[0,226]%x[0,232]
U564:%x[0,227]
U565:%x[0,227]%x[0,228]
U566:%x[0,227]%x[0,231]
U567:%x[0,228]
U568:%x[0,228]%x[0,229]
U569:%x[0,228]%x[0,230]
U570:%x[0,229]
U571:%x[0,229]%x[0,230]
U572:%x[0,230]
U573:%x[0,230]%x[0,231]
U574:%x[0,231]
U575:%x[0,231]%x[0,232]
U576:%x[0,232]
U577:%x[0,232]%x[0,233]
U578:%x[0,233]
U579:%x[0,233]%x[0,234]
U580:%x[0,234]
U581:%x[0,234]%x[0,235]
U582:%x[0,235]
U583:%x[0,235]%x[0,236]
U584:%x[0,236]
U585:%x[0,236]%x[0,237]
U586:%x[0,237]

10796 U0:*
3784 U0:C|
6228 U0:G|
0 U0:T|
10996 U100:**
9524 U100:-0.006|-0.205|
8724 U100:-0.013|0.027|
6312 U100:-0.032|-0.246|
1346 U100:-0.032|0.025|
7216 U100:-0.077|-0.003|
200 U100:-0.136|0.013|
4458 U100:0.013|-0.013|
3188 U100:0.013|-0.11|
10028 U100:0.015|-0.205|
5084 U100:0.015|-0.274|
9864 U100:0.015|-0.28|
5708 U100:0.027|-0.013|
8296 U100:0.076|0.04|
2410 U100:0.134|-0.28|
7760 U100:0.175|-0.057|
10438 U100:0.175|-0.183|
3884 U100:0.175|0.027|
10998 U101:**
9526 U101:-0.006|-0.003|
8726 U101:-0.013|0.013|
6314 U101:-0.032|-0.006|
1348 U101:-0.032|-0.11|
7218 U101:-0.077|0.182|
202 U101:-0.136|0.09|
4460 U101:0.013|-0.037|
8978 U101:0.013|-0.11|
9150 U101:0.013|-0.246|
3190 U101:0.013|-0.274|
6772 U101:0.013|0.015|
5086 U101:0.015|-0.006|
10030 U101:0.015|-0.274|
9866 U101:0.015|-0.28|
5710 U101:0.027|-0.274|
8298 U101:0.076|0.027|
2412 U101:0.134|0.182|
10440 U101:0.175|-0.037|
3886 U101:0.175|-0.183|
7762 U101:0.175|-0.28|
11000 U102:*
7220 U102:-0.003|
4462 U102:-0.013|
7764 U102:-0.057|
3192 U102:-0.11|
10442 U102:-0.183|
9528 U102:-0.205|
6316 U102:-0.246|
5088 U102:-0.274|
2414 U102:-0.28|
204 U102:0.013|
1350 U102:0.025|
3888 U102:0.027|
8300 U102:0.04|
11002 U103:**
7222 U103:-0.003|-0.037|
5712 U103:-0.013|-0.006|
4464 U103:-0.013|-0.183|
7766 U103:-0.057|0.013|
8980 U103:-0.11|-0.28|
3194 U103:-0.11|0.182|
10444 U103:-0.183|0.04|
10032 U103:-0.205|-0.183|
9530 U103:-0.205|-0.274|
6318 U103:-0.246|0.015|
5090 U103:-0.274|-0.274|
2416 U103:-0.28|-0.274|
9868 U103:-0.28|-0.28|
206 U103:0.013|-0.11|
1352 U103:0.025|0.09|
3890 U103:0.027|-0.037|
8728 U103:0.027|-0.081|
8302 U103:0.04|-0.033|
11004 U104:**
7224 U104:-0.003|0.068|
5714 U104:-0.013|-0.081|
4466 U104:-0.013|-0.274|
6774 U104:-0.013|-0.28|
7768 U104:-0.057|0.068|
3196 U104:-0.11|-0.274|
8982 U104:-0.11|-0.28|
9152 U104:-0.11|0.013|
10446 U104:-0.183|0.194|
10034 U104:-0.205|-0.037|
9532 U104:-0.205|-0.136|
6320 U104:-0.246|0.015|
5092 U104:-0.274|0.04|
2418 U104:-0.28|0.068|
208 U104:0.013|-0.057|
1354 U104:0.025|-0.11|
8730 U104:0.027|-0.037|
3892 U104:0.027|-0.081|
8304 U104:0.04|-0.037|
11006 U105:*
5716 U105:-0.006|
8306 U105:-0.033|
3894 U105:-0.037|
8732 U105:-0.081|
210 U105:-0.11|
4468 U105:-0.183|
2420 U105:-0.274|
8984 U105:-0.28|
7770 U105:0.013|
6322 U105:0.015|
10448 U105:0.04|
1356 U105:0.09|
3198 U105:0.182|
11008 U106:**
6776 U106:-0.006|0.015|
5718 U106:-0.006|0.04|
8308 U106:-0.033|-0.033|
3896 U106:-0.037|-0.274|
7226 U106:-0.037|-0.28|
8734 U106:-0.081|-0.274|
212 U106:-0.11|-0.11|
4470 U106:-0.183|-0.081|
10036 U106:-0.183|0.175|
9534 U106:-0.274|-0.037|
5094 U106:-0.274|-0.081|
2422 U106:-0.274|-0.274|
9154 U106:-0.28|-0.274|
8986 U106:-0.28|0.068|
7772 U106:0.013|-0.11|
6324 U106:0.015|-0.28|
10450 U106:0.04|-0.006|
1358 U106:0.09|-0.057|
3200 U106:0.182|0.068|
11010 U107:**
5720 U107:-0.006|-0.183|
6778 U107:-0.006|-0.28|
8310 U107:-0.033|-0.205|
3898 U107:-0.037|-0.274|
7228 U107:-0.037|-0.28|
8736 U107:-0.081|-0.274|
214 U107:-0.11|0.013|
4472 U107:-0.183|-0.274|
10038 U107:-0.183|0.194|
5096 U107:-0.274|-0.183|
2424 U107:-0.274|-0.274|
9536 U107:-0.274|0.013|
9156 U107:-0.28|-0.037|
8988 U107:-0.28|0.068|
7774 U107:0.013|0.182|
6326 U107:0.015|-0.28|
10452 U107:0.04|0.04|
1360 U107:0.09|0.013|
3202 U107:0.182|-0.274|
11012 U108:*
10454 U108:-0.006|
8312 U108:-0.033|
9538 U108:-0.037|
1362 U108:-0.057|
4474 U108:-0.081|
216 U108:-0.11|
2426 U108:-0.274|
6328 U108:-0.28|
6780 U108:0.015|
5722 U108:0.04|
3204 U108:0.068|
10040 U108:0.175|
11014 U109:**
10456 U109:-0.006|0.04|
8314 U109:-0.033|-0.205|
9540 U109:-0.037|0.013|
1364 U109:-0.057|0.013|
5098 U109:-0.081|-0.183|
4476 U109:-0.081|-0.274|
218 U109:-0.11|0.013|
7776 U109:-0.11|0.182|
9158 U109:-0.274|-0.037|
2428 U109:-0.274|-0.274|
9870 U109:-0.274|0.068|
6330 U109:-0.28|-0.28|
6782 U109:0.015|-0.28|
5724 U109:0.04|-0.183|
3206 U109:0.068|-0.274|
8990 U109:0.068|0.068|
10042 U109:0.175|0.194|
10816 U10:**
6236 U10:A|C|
5620 U10:A|G|
2288 U10:C|A|
20 U10:C|G|
7130 U10:G|C|
1190 U10:G|G|
8672 U10:G|T|
9462 U10:T|G|
11016 U110:*
9160 U110:-0.037|
5100 U110:-0.183|
8316 U110:-0.205|
2430 U110:-0.274|
6332 U110:-0.28|
220 U110:0.013|
10458 U110:0.04|
8992 U110:0.068|
7778 U110:0.182|
10044 U110:0.194|
11018 U111:**
9162 U111:-0.037|0.013|
5726 U111:-0.183|-0.081|
5102 U111:-0.183|0.04|
8318 U111:-0.205|-0.037|
8738 U111:-0.274|-0.037|
3900 U111:-0.274|-0.081|
3208 U111:-0.274|-0.274|
2432 U111:-0.274|0.068|
6784 U111:-0.28|-0.28|
6334 U111:-0.28|0.015|
7230 U111:-0.28|0.068|
222 U111:0.013|-0.057|
1366 U111:0.013|-0.11|
9542 U111:0.013|-0.136|
10460 U111:0.04|0.194|
8994 U111:0.068|-0.28|
9872 U111:0.068|0.068|
7780 U111:0.182|0.068|
10046 U111:0.194|-0.037|
11020 U112:*
8320 U112:-0.037|
224 U112:-0.057|
3902 U112:-0.081|
1368 U112:-0.11|
9544 U112:-0.136|
3210 U112:-0.274|
6786 U112:-0.28|
9164 U112:0.013|
6336 U112:0.015|
5104 U112:0.04|
2434 U112:0.068|
10462 U112:0.194|
11022 U113:**
10048 U113:-0.037|-0.274|
8740 U113:-0.037|0.013|
8322 U113:-0.037|0.027|
226 U113:-0.057|0.09|
3904 U113:-0.081|-0.183|
5728 U113:-0.081|-0.274|
1370 U113:-0.11|-0.11|
9546 U113:-0.136|-0.003|
4478 U113:-0.274|-0.037|
3212 U113:-0.274|-0.274|
8996 U113:-0.28|-0.11|
6788 U113:-0.28|0.015|
9166 U113:0.013|-0.246|
6338 U113:0.015|-0.006|
5106 U113:0.04|-0.006|
7782 U113:0.068|-0.28|
2436 U113:0.068|0.182|
10464 U113:0.194|-0.037|
11024 U114:*
9548 U114:-0.003|
5108 U114:-0.006|
4480 U114:-0.037|
1372 U114:-0.11|
3906 U114:-0.183|
9168 U114:-0.246|
3214 U114:-0.274|
7784 U114:-0.28|
8742 U114:0.013|
6790 U114:0.015|
8324 U114:0.027|
228 U114:0.09|
2438 U114:0.182|
11026 U115:**
9550 U115:-0.003|-0.013|
5110 U115:-0.006|-0.013|
10466 U115:-0.037|-0.274|
4482 U115:-0.037|0.027|
1374 U115:-0.11|0.013|
8998 U115:-0.11|0.027|
3908 U115:-0.183|-0.013|
9170 U115:-0.246|0.175|
10050 U115:-0.274|-0.081|
5730 U115:-0.274|-0.274|
3216 U115:-0.274|-0.28|
9874 U115:-0.28|-0.11|
7786 U115:-0.28|0.134|
8744 U115:0.013|-0.012|
6792 U115:0.015|-0.246|
8326 U115:0.027|0.031|
230 U115:0.09|0.025|
2440 U115:0.182|-0.11|
11028 U116:*
8746 U116:-0.012|
3910 U116:-0.013|
10052 U116:-0.081|
2442 U116:-0.11|
6794 U116:-0.246|
5732 U116:-0.274|
3218 U116:-0.28|
1376 U116:0.013|
232 U116:0.025|
4484 U116:0.027|
8328 U116:0.031|
7788 U116:0.134|
9172 U116:0.175|
11030 U117:**
8748 U117:-0.012|-0.136|
9552 U117:-0.013|-0.032|
3912 U117:-0.013|0.013|
5112 U117:-0.013|0.027|
10054 U117:-0.081|-0.057|
2444 U117:-0.11|0.013|
7232 U117:-0.11|0.027|
6796 U117:-0.246|-0.032|
10468 U117:-0.274|-0.28|
5734 U117:-0.274|0.015|
3220 U117:-0.28|0.134|
1378 U117:0.013|-0.136|
234 U117:0.025|-0.032|
4486 U117:0.027|0.175|
8330 U117:0.031|0.194|
7790 U117:0.134|0.194|
9174 U117:0.175|-0.057|
11032 U118:*
236 U118:-0.032|
9176 U118:-0.057|
1380 U118:-0.136|
10470 U118:-0.28|
2446 U118:0.013|
5736 U118:0.015|
5114 U118:0.027|
3222 U118:0.134|
4488 U118:0.175|
7792 U118:0.194|
11034 U119:**
238 U119:-0.032|-0.057|
6798 U119:-0.032|-0.205|
10056 U119:-0.057|-0.012|
9178 U119:-0.057|0.107|
1382 U119:-0.136|-0.077|
10472 U119:-0.28|0.182|
2448 U119:0.013|-0.246|
5738 U119:0.015|-0.006|
7234 U119:0.027|0.031|
5116 U119:0.027|0.09|
3224 U119:0.134|0.076|
4490 U119:0.175|0.076|
7794 U119:0.194|-0.037|
8332 U119:0.194|0.04|
10818 U11:**
6238 U11:A|C|
5622 U11:A|G|
7678 U11:C|A|
22 U11:C|C|
9958 U11:C|G|
4990 U11:C|T|
8218 U11:G|A|
1192 U11:G|G|
6702 U11:G|T|
9464 U11:T|C|
11036 U120:*
5740 U120:-0.006|
10058 U120:-0.012|
7796 U120:-0.037|
240 U120:-0.057|
1384 U120:-0.077|
6800 U120:-0.205|
2450 U120:-0.246|
7236 U120:0.031|
8334 U120:0.04|
3226 U120:0.076|
5118 U120:0.09|
9180 U120:0.107|
10474 U120:0.182|
11038 U121:**
5742 U121:-0.006|-0.205|
10060 U121:-0.012|0.013|
7798 U121:-0.037|-0.28|
242 U121:-0.057|0.175|
1386 U121:-0.077|0.017|
6802 U121:-0.205|-0.274|
3914 U121:-0.246|0.04|
2452 U121:-0.246|0.134|
7238 U121:0.031|0.027|
8336 U121:0.04|-0.183|
3228 U121:0.076|0.017|
4492 U121:0.076|0.107|
5120 U121:0.09|0.182|
9182 U121:0.107|0.017|
10476 U121:0.182|0.068|
11040 U122:*
8338 U122:-0.183|
5744 U122:-0.205|
6804 U122:-0.274|
7800 U122:-0.28|
10062 U122:0.013|
1388 U122:0.017|
7240 U122:0.027|
3916 U122:0.04|
10478 U122:0.068|
4494 U122:0.107|
2454 U122:0.134|
244 U122:0.175|
5122 U122:0.182|
11042 U123:**
8340 U123:-0.183|0.175|
5746 U123:-0.205|0.068|
6806 U123:-0.274|-0.037|
7802 U123:-0.28|0.182|
10064 U123:0.013|0.031|
1390 U123:0.017|0.09|
9000 U123:0.017|0.175|
7242 U123:0.027|-0.081|
3918 U123:0.04|-0.006|
10480 U123:0.068|-0.205|
4496 U123:0.107|-0.136|
2456 U123:0.134|0.182|
246 U123:0.175|0.194|
5124 U123:0.182|0.182|
11044 U124:*
3920 U124:-0.006|
6808 U124:-0.037|
7244 U124:-0.081|
4498 U124:-0.136|
10482 U124:-0.205|
10066 U124:0.031|
5748 U124:0.068|
1392 U124:0.09|
8342 U124:0.175|
2458 U124:0.182|
248 U124:0.194|
11046 U125:**
3922 U125:-0.006|+|
6810 U125:-0.037|+|
7246 U125:-0.081|+|
4500 U125:-0.136|+|
10484 U125:-0.205|+|
10068 U125:0.031|+|
5750 U125:0.068|+|
1394 U125:0.09|+|
8344 U125:0.175|+|
2460 U125:0.182|+|
250 U125:0.194|+|
11048 U126:*
252 U126:+|
11050 U127:**
3924 U127:+|31.3|
254 U127:+|31.6|
7248 U127:+|35.3|
4502 U127:+|37.7|
1396 U127:+|39.6|
11052 U128:**
10070 U128:+|30.6|
4504 U128:+|31.3|
1398 U128:+|31.6|
10486 U128:+|33.1|
7250 U128:+|35.5|
3926 U128:+|37.7|
256 U128:+|39.6|
11054 U129:*
3928 U129:31.3|
258 U129:31.6|
7252 U129:35.3|
4506 U129:37.7|
1400 U129:39.6|
10820 U12:*
2290 U12:A|
6240 U12:C|
24 U12:G|
8674 U12:T|
11056 U130:**
3930 U130:31.3|35.3|
260 U130:31.6|30.6|
5126 U130:31.6|35.5|
3230 U130:31.6|43.2|
7254 U130:35.3|35.3|
7804 U130:37.7|30.6|
4508 U130:37.7|33.1|
9184 U130:37.7|35.5|
9554 U130:37.7|38.4|
10072 U130:39.6|30.6|
6340 U130:39.6|35.5|
1402 U130:39.6|37.7|
11058 U131:**
3932 U131:31.3|33.1|
3232 U131:31.6|30.6|
5752 U131:31.6|35.5|
262 U131:31.6|37.7|
2462 U131:31.6|43.2|
7256 U131:35.3|30.6|
9186 U131:37.7|30.6|
4510 U131:37.7|35.3|
9556 U131:37.7|37.7|
7806 U131:37.7|43.2|
1404 U131:39.6|30.6|
10074 U131:39.6|39.6|
6342 U131:39.6|43.2|
11060 U132:*
264 U132:30.6|
4512 U132:33.1|
3934 U132:35.3|
5128 U132:35.5|
1406 U132:37.7|
9558 U132:38.4|
3234 U132:43.2|
11062 U133:**
266 U133:30.6|38.4|
4514 U133:33.1|37.7|
7258 U133:35.3|35.3|
3936 U133:35.3|38.4|
9188 U133:35.5|30.6|
5130 U133:35.5|33.1|
6344 U133:35.5|35.5|
1408 U133:37.7|30.6|
9560 U133:38.4|30.6|
5754 U133:43.2|31.6|
3236 U133:43.2|37.7|
11064 U134:**
268 U134:30.6|30.6|
10488 U134:30.6|31.6|
10076 U134:30.6|35.3|
7808 U134:30.6|35.5|
2464 U134:30.6|37.7|
4516 U134:33.1|38.4|
3938 U134:35.3|37.7|
7260 U134:35.3|39.6|
5132 U134:35.5|31.6|
6346 U134:35.5|37.7|
9190 U134:35.5|38.4|
1410 U134:37.7|38.4|
9562 U134:38.4|30.6|
5756 U134:43.2|33.1|
6812 U134:43.2|35.5|
3238 U134:43.2|38.4|
11066 U135:*
1412 U135:30.6|
5758 U135:31.6|
5134 U135:33.1|
7262 U135:35.3|
6348 U135:35.5|
3240 U135:37.7|
270 U135:38.4|
11068 U136:**
1414 U136:30.6|35.3|
9564 U136:30.6|37.7|
5760 U136:31.6|30.6|
5136 U136:33.1|37.7|
7264 U136:35.3|38.4|
6350 U136:35.5|33.1|
8750 U136:37.7|33.1|
3242 U136:37.7|35.3|
8346 U136:37.7|38.4|
272 U136:38.4|31.3|
2466 U136:38.4|37.7|
11070 U137:**
1416 U137:30.6|31.3|
9192 U137:30.6|35.3|
5762 U137:31.6|37.7|
5138 U137:33.1|30.6|
7266 U137:35.3|30.6|
6352 U137:35.5|35.3|
8752 U137:37.7|31.3|
6814 U137:37.7|33.1|
3244 U137:37.7|37.7|
274 U137:38.4|35.3|
7810 U137:38.4|39.6|
10490 U137:38.4|43.2|
11072 U138:*
5764 U138:30.6|
276 U138:31.3|
6354 U138:33.1|
1418 U138:35.3|
2468 U138:37.7|
7268 U138:38.4|
11074 U139:**
5766 U139:30.6|39.6|
278 U139:31.3|35.3|
6356 U139:33.1|35.3|
8754 U139:33.1|39.6|
1420 U139:35.3|33.1|
3246 U139:35.3|39.6|
3940 U139:37.7|30.6|
9566 U139:37.7|33.1|
5140 U139:37.7|35.5|
2470 U139:37.7|43.2|
7270 U139:38.4|31.3|
8348 U139:38.4|37.7|
10822 U13:**
4992 U13:A|A|
3796 U13:A|G|
2292 U13:A|T|
8220 U13:C|A|
6242 U13:C|C|
7132 U13:C|G|
3078 U13:G|A|
26 U13:G|G|
1194 U13:G|T|
8676 U13:T|C|
11076 U140:**
5768 U140:30.6|35.5|
280 U140:31.3|33.1|
8756 U140:33.1|35.3|
6358 U140:33.1|39.6|
4518 U140:35.3|30.6|
1422 U140:35.3|35.3|
3248 U140:35.3|43.2|
10078 U140:37.7|30.6|
9568 U140:37.7|33.1|
10492 U140:37.7|35.5|
7812 U140:37.7|37.7|
2472 U140:37.7|39.6|
7272 U140:38.4|39.6|
11078 U141:*
3942 U141:30.6|
7274 U141:31.3|
1424 U141:33.1|
282 U141:35.3|
5142 U141:35.5|
8350 U141:37.7|
3250 U141:39.6|
2474 U141:43.2|
11080 U142:**
10494 U142:30.6|33.1|
7814 U142:30.6|35.3|
3944 U142:30.6|39.6|
7276 U142:31.3|39.6|
1426 U142:33.1|31.6|
9570 U142:33.1|35.5|
6360 U142:35.3|37.7|
284 U142:35.3|39.6|
10080 U142:35.5|33.1|
5144 U142:35.5|35.5|
9876 U142:35.5|43.2|
8352 U142:37.7|33.1|
8758 U142:39.6|30.6|
4520 U142:39.6|33.1|
3252 U142:39.6|43.2|
2476 U142:43.2|35.5|
11082 U143:**
3946 U143:30.6|33.1|
10496 U143:30.6|35.5|
7816 U143:30.6|43.2|
7278 U143:31.3|43.2|
1428 U143:33.1|39.6|
286 U143:35.3|31.6|
6362 U143:35.3|33.1|
5146 U143:35.5|33.1|
10082 U143:35.5|35.5|
9878 U143:35.5|43.2|
8354 U143:37.7|30.6|
8760 U143:39.6|35.3|
3254 U143:39.6|35.5|
6816 U143:39.6|37.7|
4522 U143:39.6|39.6|
2478 U143:43.2|43.2|
11084 U144:*
8762 U144:30.6|
1430 U144:31.6|
4524 U144:33.1|
7818 U144:35.3|
2480 U144:35.5|
6364 U144:37.7|
288 U144:39.6|
3256 U144:43.2|
11086 U145:**
8764 U145:30.6|35.5|
1432 U145:31.6|30.6|
4526 U145:33.1|30.6|
8356 U145:33.1|31.3|
5770 U145:33.1|37.7|
7820 U145:35.3|39.6|
2482 U145:35.5|35.5|
6366 U145:37.7|35.5|
3948 U145:39.6|35.5|
290 U145:39.6|43.2|
3258 U145:43.2|31.6|
9002 U145:43.2|35.5|
11088 U146:**
8766 U146:30.6|39.6|
1434 U146:31.6|43.2|
4528 U146:33.1|35.5|
8358 U146:33.1|39.6|
7822 U146:35.3|35.5|
9572 U146:35.5|31.3|
2484 U146:35.5|31.6|
5148 U146:35.5|37.7|
6368 U146:37.7|37.7|
292 U146:39.6|30.6|
7280 U146:39.6|31.6|
9194 U146:43.2|35.3|
3260 U146:43.2|35.5|
9004 U146:43.2|43.2|
11090 U147:*
1436 U147:30.6|
8360 U147:31.3|
3262 U147:31.6|
2486 U147:35.5|
5772 U147:37.7|
7824 U147:39.6|
294 U147:43.2|
11092 U148:**
1438 U148:30.6|35.3|
4530 U148:30.6|35.5|
10084 U148:30.6|37.7|
8362 U148:31.3|33.1|
3264 U148:31.6|35.5|
5150 U148:35.5|30.6|
9006 U148:35.5|31.6|
2488 U148:35.5|35.5|
9574 U148:35.5|39.6|
6370 U148:35.5|43.2|
5774 U148:37.7|33.1|
6818 U148:37.7|35.5|
7826 U148:39.6|43.2|
296 U148:43.2|39.6|
11094 U149:**
4532 U149:30.6|35.5|
1440 U149:30.6|39.6|
8364 U149:31.3|35.5|
3266 U149:31.6|35.5|
9880 U149:35.5|31.6|
5152 U149:35.5|33.1|
9576 U149:35.5|35.3|
2490 U149:35.5|35.5|
9196 U149:35.5|39.6|
5776 U149:37.7|30.6|
10498 U149:37.7|37.7|
6820 U149:37.7|43.2|
7828 U149:39.6|31.6|
298 U149:43.2|35.3|
10824 U14:**
10368 U14:A|A|
2294 U14:A|C|
7680 U14:A|G|
6244 U14:C|C|
28 U14:G|C|
6704 U14:G|G|
3080 U14:G|T|
8678 U14:T|C|
11096 U150:*
5154 U150:30.6|
9008 U150:31.6|
5778 U150:33.1|
1442 U150:35.3|
2492 U150:35.5|
10086 U150:37.7|
300 U150:39.6|
6372 U150:43.2|
11098 U151:**
5156 U151:30.6|33.1|
9010 U151:31.6|35.5|
5780 U151:33.1|30.6|
8366 U151:33.1|35.5|
10500 U151:33.1|37.7|
1444 U151:35.3|39.6|
9882 U151:35.5|31.6|
2494 U151:35.5|35.5|
9198 U151:35.5|39.6|
6822 U151:35.5|43.2|
10088 U151:37.7|39.6|
302 U151:39.6|35.3|
7830 U151:43.2|31.6|
6374 U151:43.2|35.5|
11100 U152:*
5782 U152:30.6|
7832 U152:31.6|
5158 U152:33.1|
304 U152:35.3|
2496 U152:35.5|
10502 U152:37.7|
1446 U152:39.6|
6824 U152:43.2|
11102 U153:**
5784 U153:30.6|35.5|
7834 U153:31.6|35.5|
5160 U153:33.1|37.7|
306 U153:35.3|30.6|
9578 U153:35.3|31.3|
3950 U153:35.5|30.6|
2498 U153:35.5|31.6|
3268 U153:35.5|35.5|
6376 U153:35.5|37.7|
8368 U153:35.5|39.6|
9012 U153:35.5|43.2|
10504 U153:37.7|39.6|
9200 U153:39.6|35.3|
10090 U153:39.6|35.5|
1448 U153:39.6|43.2|
6826 U153:43.2|35.5|
11104 U154:*
308 U154:30.6|
9580 U154:31.3|
2500 U154:31.6|
9202 U154:35.3|
3270 U154:35.5|
5162 U154:37.7|
8370 U154:39.6|
1450 U154:43.2|
11106 U155:**
310 U155:30.6|31.6|
3952 U155:30.6|33.1|
9582 U155:31.3|39.6|
2502 U155:31.6|43.2|
9204 U155:35.3|37.7|
3272 U155:35.5|35.5|
6828 U155:35.5|37.7|
4534 U155:35.5|39.6|
7836 U155:35.5|43.2|
5164 U155:37.7|33.1|
8372 U155:39.6|30.6|
8768 U155:39.6|35.3|
10506 U155:39.6|35.5|
1452 U155:43.2|39.6|
11108 U156:*
8374 U156:30.6|
312 U156:31.6|
3954 U156:33.1|
8770 U156:35.3|
3274 U156:35.5|
6830 U156:37.7|
1454 U156:39.6|
2504 U156:43.2|
11110 U157:**
8376 U157:30.6|39.6|
314 U157:31.6|33.1|
3956 U157:33.1|39.6|
8772 U157:35.3|35.3|
10092 U157:35.5|30.6|
5786 U157:35.5|35.5|
3276 U157:35.5|43.2|
9206 U157:37.7|30.6|
6832 U157:37.7|35.3|
4536 U157:39.6|30.6|
9584 U157:39.6|33.1|
1456 U157:39.6|35.3|
7838 U157:43.2|37.7|
2506 U157:43.2|39.6|
11112 U158:*
4538 U158:30.6|
316 U158:33.1|
1458 U158:35.3|
5788 U158:35.5|
7840 U158:37.7|
2508 U158:39.6|
3278 U158:43.2|
11114 U159:**
9208 U159:30.6|35.3|
4540 U159:30.6|37.7|
318 U159:33.1|35.3|
1460 U159:35.3|31.3|
6834 U159:35.3|33.1|
5790 U159:35.5|37.7|
10508 U159:35.5|43.2|
7842 U159:37.7|39.6|
5166 U159:39.6|30.6|
2510 U159:39.6|35.3|
8378 U159:39.6|37.7|
3280 U159:43.2|37.7|
10826 U15:*
3082 U15:A|
6246 U15:C|
30 U15:G|
1196 U15:T|
11116 U160:*
5168 U160:30.6|
1462 U160:31.3|
6836 U160:33.1|
320 U160:35.3|
3282 U160:37.7|
7844 U160:39.6|
10510 U160:43.2|
11118 U161:**
5170 U161:30.6|31.6|
7282 U161:30.6|39.6|
1464 U161:31.3|38.4|
6838 U161:33.1|35.5|
322 U161:35.3|30.6|
10094 U161:35.3|35.3|
2512 U161:35.3|37.7|
9210 U161:35.3|38.4|
5792 U161:37.7|33.1|
3284 U161:37.7|38.4|
7846 U161:39.6|35.5|
10512 U161:43.2|31.6|
11120 U162:*
324 U162:30.6|
5172 U162:31.6|
5794 U162:33.1|
10096 U162:35.3|
6840 U162:35.5|
2514 U162:37.7|
1466 U162:38.4|
7284 U162:39.6|
11122 U163:**
326 U163:30.6|37.7|
10514 U163:31.6|35.5|
5174 U163:31.6|43.2|
8380 U163:33.1|30.6|
5796 U163:33.1|35.5|
10098 U163:35.3|39.6|
6842 U163:35.5|35.5|
7848 U163:35.5|43.2|
3958 U163:37.7|33.1|
2516 U163:37.7|43.2|
1468 U163:38.4|30.6|
4542 U163:38.4|35.3|
7286 U163:39.6|30.6|
11124 U164:*
1470 U164:30.6|
3960 U164:33.1|
4544 U164:35.3|
5798 U164:35.5|
328 U164:37.7|
10100 U164:39.6|
2518 U164:43.2|
11126 U165:**
1472 U165:30.6|31.6|
7288 U165:30.6|35.5|
8382 U165:30.6|37.7|
3962 U165:33.1|37.7|
4546 U165:35.3|31.3|
5800 U165:35.5|31.6|
10516 U165:35.5|33.1|
6844 U165:35.5|39.6|
330 U165:37.7|39.6|
10102 U165:39.6|30.6|
2520 U165:43.2|31.6|
11128 U166:*
10104 U166:30.6|
4548 U166:31.3|
1474 U166:31.6|
10518 U166:33.1|
7290 U166:35.5|
3964 U166:37.7|
332 U166:39.6|
11130 U167:**
10106 U167:30.6|+|
4550 U167:31.3|+|
1476 U167:31.6|+|
10520 U167:33.1|+|
7292 U167:35.5|+|
3966 U167:37.7|+|
334 U167:39.6|+|
11132 U168:*
336 U168:+|
11134 U169:**
3968 U169:+|12.1|
1478 U169:+|4.5|
7294 U169:+|6.1|
338 U169:+|6.3|
4552 U169:+|9.8|
10828 U16:**
4994 U16:A|A|
4366 U16:A|C|
3084 U16:A|T|
6248 U16:C|A|
8680 U16:C|T|
32 U16:G|A|
7682 U16:G|G|
10370 U16:G|T|
1198 U16:T|A|
2296 U16:T|T|
11136 U170:**
4554 U170:+|12.1|
10108 U170:+|2.1|
10522 U170:+|2.3|
7296 U170:+|2.9|
340 U170:+|4.5|
1480 U170:+|6.3|
3970 U170:+|9.8|
11138 U171:*
3972 U171:12.1|
1482 U171:4.5|
7298 U171:6.1|
342 U171:6.3|
4556 U171:9.8|
11140 U172:**
3974 U172:12.1|6.1|
10110 U172:4.5|2.1|
6378 U172:4.5|2.9|
1484 U172:4.5|9.8|
7300 U172:6.1|6.1|
3286 U172:6.3|1.6|
344 U172:6.3|2.1|
5176 U172:6.3|2.9|
7850 U172:9.8|2.1|
4558 U172:9.8|2.3|
9212 U172:9.8|2.9|
9586 U172:9.8|4|
11142 U173:**
3976 U173:12.1|2.3|
6380 U173:4.5|1.6|
1486 U173:4.5|2.1|
10112 U173:4.5|4.5|
7302 U173:6.1|2.1|
2522 U173:6.3|1.6|
3288 U173:6.3|2.1|
5802 U173:6.3|2.9|
346 U173:6.3|9.8|
7852 U173:9.8|1.6|
9214 U173:9.8|2.1|
4560 U173:9.8|6.1|
9588 U173:9.8|9.8|
11144 U174:*
3290 U174:1.6|
348 U174:2.1|
4562 U174:2.3|
5178 U174:2.9|
9590 U174:4|
3978 U174:6.1|
1488 U174:9.8|
11146 U175:**
5804 U175:1.6|6.3|
3292 U175:1.6|9.8|
350 U175:2.1|4|
4564 U175:2.3|9.8|
9216 U175:2.9|2.1|
5180 U175:2.9|2.3|
6382 U175:2.9|2.9|
9592 U175:4|2.1|
3980 U175:6.1|4|
7304 U175:6.1|6.1|
1490 U175:9.8|2.1|
11148 U176:**
5806 U176:1.6|2.3|
6846 U176:1.6|2.9|
3294 U176:1.6|4|
352 U176:2.1|2.1|
7854 U176:2.1|2.9|
10114 U176:2.1|6.1|
10524 U176:2.1|6.3|
2524 U176:2.1|9.8|
4566 U176:2.3|4|
9218 U176:2.9|4|
5182 U176:2.9|6.3|
6384 U176:2.9|9.8|
9594 U176:4|2.1|
7306 U176:6.1|4.5|
3982 U176:6.1|9.8|
1492 U176:9.8|4|
11150 U177:*
1494 U177:2.1|
5184 U177:2.3|
6386 U177:2.9|
354 U177:4|
7308 U177:6.1|
5808 U177:6.3|
3296 U177:9.8|
11152 U178:**
1496 U178:2.1|6.1|
9596 U178:2.1|9.8|
5186 U178:2.3|9.8|
6388 U178:2.9|2.3|
356 U178:4|12.1|
2526 U178:4|9.8|
7310 U178:6.1|4|
5810 U178:6.3|2.1|
8774 U178:9.8|2.3|
8384 U178:9.8|4|
3298 U178:9.8|6.1|
11154 U179:**
1498 U179:2.1|12.1|
9220 U179:2.1|6.1|
5188 U179:2.3|2.1|
6390 U179:2.9|6.1|
10526 U179:4|1.6|
7856 U179:4|4.5|
358 U179:4|6.1|
7312 U179:6.1|2.1|
5812 U179:6.3|9.8|
8776 U179:9.8|12.1|
6848 U179:9.8|2.3|
3300 U179:9.8|9.8|
10830 U17:**
3086 U17:A|A|
4368 U17:A|C|
6706 U17:A|G|
4996 U17:A|T|
8682 U17:C|C|
6250 U17:C|T|
34 U17:G|A|
3798 U17:G|T|
9466 U17:T|A|
1200 U17:T|C|
2298 U17:T|T|
11156 U180:*
360 U180:12.1|
5814 U180:2.1|
6392 U180:2.3|
7314 U180:4|
1500 U180:6.1|
2528 U180:9.8|
11158 U181:**
362 U181:12.1|6.1|
5816 U181:2.1|4.5|
8778 U181:2.3|4.5|
6394 U181:2.3|6.1|
7316 U181:4|12.1|
8386 U181:4|9.8|
1502 U181:6.1|2.3|
3302 U181:6.1|4.5|
2530 U181:9.8|1.6|
3984 U181:9.8|2.1|
9598 U181:9.8|2.3|
5190 U181:9.8|2.9|
11160 U182:**
364 U182:12.1|2.3|
5818 U182:2.1|2.9|
6396 U182:2.3|4.5|
8780 U182:2.3|6.1|
7318 U182:4|4.5|
3304 U182:6.1|1.6|
4568 U182:6.1|2.1|
1504 U182:6.1|6.1|
10116 U182:9.8|2.1|
9600 U182:9.8|2.3|
10528 U182:9.8|2.9|
2532 U182:9.8|4.5|
7858 U182:9.8|9.8|
11162 U183:*
2534 U183:1.6|
7320 U183:12.1|
3986 U183:2.1|
1506 U183:2.3|
5192 U183:2.9|
3306 U183:4.5|
366 U183:6.1|
8388 U183:9.8|
11164 U184:**
2536 U184:1.6|2.9|
7322 U184:12.1|4.5|
10530 U184:2.1|2.3|
3988 U184:2.1|4.5|
7860 U184:2.1|6.1|
9602 U184:2.3|2.9|
1508 U184:2.3|6.3|
9884 U184:2.9|1.6|
10118 U184:2.9|2.3|
5194 U184:2.9|2.9|
3308 U184:4.5|1.6|
8782 U184:4.5|2.1|
4570 U184:4.5|2.3|
368 U184:6.1|4.5|
6398 U184:6.1|9.8|
8390 U184:9.8|2.3|
11166 U185:**
2538 U185:1.6|1.6|
7324 U185:12.1|1.6|
7862 U185:2.1|1.6|
3990 U185:2.1|2.3|
10532 U185:2.1|2.9|
1510 U185:2.3|4.5|
9886 U185:2.9|1.6|
5196 U185:2.9|2.3|
10120 U185:2.9|2.9|
3310 U185:4.5|2.9|
4572 U185:4.5|4.5|
8784 U185:4.5|6.1|
6850 U185:4.5|9.8|
6400 U185:6.1|2.3|
370 U185:6.1|6.3|
8392 U185:9.8|2.1|
11168 U186:*
3312 U186:1.6|
8786 U186:2.1|
4574 U186:2.3|
2540 U186:2.9|
372 U186:4.5|
7864 U186:6.1|
1512 U186:6.3|
6402 U186:9.8|
11170 U187:**
9014 U187:1.6|2.9|
3314 U187:1.6|6.3|
8788 U187:2.1|2.9|
8394 U187:2.3|12.1|
4576 U187:2.3|2.1|
5820 U187:2.3|9.8|
2542 U187:2.9|2.9|
374 U187:4.5|1.6|
3992 U187:4.5|2.9|
7866 U187:6.1|4.5|
1514 U187:6.3|2.1|
6404 U187:9.8|2.9|
11172 U188:**
9016 U188:1.6|1.6|
3316 U188:1.6|2.9|
9222 U188:1.6|6.1|
8790 U188:2.1|4.5|
4578 U188:2.3|2.9|
8396 U188:2.3|4.5|
9604 U188:2.9|12.1|
2544 U188:2.9|6.3|
5198 U188:2.9|9.8|
376 U188:4.5|2.1|
7326 U188:4.5|6.3|
7868 U188:6.1|2.9|
1516 U188:6.3|1.6|
6406 U188:9.8|9.8|
11174 U189:*
378 U189:1.6|
8398 U189:12.1|
1518 U189:2.1|
2546 U189:2.9|
7870 U189:4.5|
3318 U189:6.3|
5822 U189:9.8|
10832 U18:*
36 U18:A|
4370 U18:C|
7684 U18:G|
2300 U18:T|
11176 U190:**
380 U190:1.6|4.5|
8400 U190:12.1|2.3|
4580 U190:2.1|2.9|
1520 U190:2.1|6.1|
10122 U190:2.1|9.8|
6408 U190:2.9|1.6|
5200 U190:2.9|2.1|
2548 U190:2.9|2.9|
9606 U190:2.9|4.5|
9018 U190:2.9|6.3|
7872 U190:4.5|1.6|
3320 U190:6.3|2.9|
5824 U190:9.8|2.3|
6852 U190:9.8|2.9|
11178 U191:**
382 U191:1.6|6.1|
8402 U191:12.1|2.9|
4582 U191:2.1|2.9|
1522 U191:2.1|4.5|
5202 U191:2.9|2.3|
2550 U191:2.9|2.9|
9224 U191:2.9|4.5|
9608 U191:2.9|6.1|
9888 U191:2.9|6.3|
7874 U191:4.5|6.3|
3322 U191:6.3|2.9|
6854 U191:9.8|1.6|
5826 U191:9.8|2.1|
10534 U191:9.8|9.8|
11180 U192:*
6410 U192:1.6|
5204 U192:2.1|
5828 U192:2.3|
2552 U192:2.9|
384 U192:4.5|
1524 U192:6.1|
9020 U192:6.3|
10124 U192:9.8|
11182 U193:**
6412 U193:1.6|2.9|
7876 U193:1.6|6.3|
5206 U193:2.1|2.3|
5830 U193:2.3|2.1|
8404 U193:2.3|2.9|
10536 U193:2.3|9.8|
6856 U193:2.9|1.6|
2554 U193:2.9|2.9|
9226 U193:2.9|4.5|
9890 U193:2.9|6.3|
386 U193:4.5|6.1|
1526 U193:6.1|4.5|
9022 U193:6.3|2.9|
10126 U193:9.8|4.5|
11184 U194:*
6858 U194:1.6|
5832 U194:2.1|
5208 U194:2.3|
2556 U194:2.9|
1528 U194:4.5|
388 U194:6.1|
7878 U194:6.3|
10538 U194:9.8|
11186 U195:**
6860 U195:1.6|2.9|
5834 U195:2.1|2.9|
5210 U195:2.3|9.8|
9024 U195:2.9|1.6|
3994 U195:2.9|2.1|
3324 U195:2.9|2.9|
8406 U195:2.9|4.5|
2558 U195:2.9|6.3|
6414 U195:2.9|9.8|
1530 U195:4.5|1.6|
10128 U195:4.5|2.9|
9228 U195:4.5|6.1|
9610 U195:6.1|12.1|
390 U195:6.1|2.1|
7880 U195:6.3|2.9|
10540 U195:9.8|4.5|
11188 U196:*
1532 U196:1.6|
9612 U196:12.1|
392 U196:2.1|
3326 U196:2.9|
8408 U196:4.5|
9230 U196:6.1|
2560 U196:6.3|
5212 U196:9.8|
11190 U197:**
1534 U197:1.6|4.5|
9614 U197:12.1|4.5|
3996 U197:2.1|2.3|
394 U197:2.1|6.3|
7882 U197:2.9|1.6|
3328 U197:2.9|2.9|
4584 U197:2.9|4.5|
6862 U197:2.9|9.8|
8410 U197:4.5|2.1|
10542 U197:4.5|2.9|
8792 U197:4.5|6.1|
9232 U197:6.1|9.8|
2562 U197:6.3|1.6|
5214 U197:9.8|2.3|
11192 U198:*
2564 U198:1.6|
8412 U198:2.1|
3998 U198:2.3|
3330 U198:2.9|
1536 U198:4.5|
8794 U198:6.1|
396 U198:6.3|
6864 U198:9.8|
11194 U199:**
2566 U199:1.6|4.5|
7884 U199:1.6|9.8|
8414 U199:2.1|4.5|
4000 U199:2.3|4.5|
3332 U199:2.9|1.6|
10130 U199:2.9|2.1|
5836 U199:2.9|2.9|
4586 U199:4.5|2.1|
9616 U199:4.5|2.3|
1538 U199:4.5|6.1|
8796 U199:6.1|6.1|
398 U199:6.3|2.3|
9234 U199:9.8|2.1|
6866 U199:9.8|6.1|
10834 U19:**
3800 U19:A|A|
1202 U19:A|G|
38 U19:A|T|
5624 U19:C|A|
8222 U19:C|G|
4372 U19:C|T|
7686 U19:G|A|
3088 U19:T|A|
10372 U19:T|G|
2302 U19:T|T|
10798 U1:**
7676 U1:C|A|
3786 U1:C|G|
6230 U1:G|A|
7120 U1:G|G|
2 U1:T|A|
1174 U1:T|C|
4360 U1:T|G|
11196 U200:*
3334 U200:1.6|
4588 U200:2.1|
400 U200:2.3|
5838 U200:2.9|
2568 U200:4.5|
1540 U200:6.1|
7886 U200:9.8|
11198 U201:**
3336 U201:1.6|9.8|
9236 U201:2.1|6.1|
4590 U201:2.1|9.8|
402 U201:2.3|6.1|
10544 U201:2.9|1.6|
5840 U201:2.9|9.8|
5216 U201:4.5|2.1|
2570 U201:4.5|6.1|
8416 U201:4.5|9.8|
1542 U201:6.1|12.1|
6868 U201:6.1|2.3|
7888 U201:9.8|4.5|
11200 U202:*
10546 U202:1.6|
1544 U202:12.1|
5218 U202:2.1|
6870 U202:2.3|
7890 U202:4.5|
404 U202:6.1|
3338 U202:9.8|
11202 U203:**
10548 U203:1.6|6.3|
1546 U203:12.1|4|
7328 U203:2.1|4.5|
5220 U203:2.1|6.3|
6872 U203:2.3|2.9|
7892 U203:4.5|2.9|
406 U203:6.1|2.1|
9238 U203:6.1|4|
10132 U203:6.1|6.1|
2572 U203:6.1|9.8|
5842 U203:9.8|2.3|
3340 U203:9.8|4|
11204 U204:*
408 U204:2.1|
5844 U204:2.3|
6874 U204:2.9|
7330 U204:4.5|
1548 U204:4|
10134 U204:6.1|
5222 U204:6.3|
2574 U204:9.8|
11206 U205:**
410 U205:2.1|9.8|
8418 U205:2.3|2.1|
5846 U205:2.3|2.9|
7894 U205:2.9|1.6|
6876 U205:2.9|2.9|
7332 U205:4.5|2.1|
1550 U205:4|2.1|
4592 U205:4|6.1|
10136 U205:6.1|4.5|
5224 U205:6.3|1.6|
10550 U205:6.3|2.9|
2576 U205:9.8|1.6|
4002 U205:9.8|2.3|
11208 U206:*
2578 U206:1.6|
1552 U206:2.1|
4004 U206:2.3|
5848 U206:2.9|
10138 U206:4.5|
4594 U206:6.1|
412 U206:9.8|
11210 U207:**
2580 U207:1.6|6.3|
7334 U207:2.1|2.9|
1554 U207:2.1|6.3|
8420 U207:2.1|9.8|
4006 U207:2.3|9.8|
10552 U207:2.9|2.3|
6878 U207:2.9|4.5|
5850 U207:2.9|6.3|
10140 U207:4.5|2.1|
4596 U207:6.1|12.1|
414 U207:9.8|4.5|
11212 U208:*
4598 U208:12.1|
10142 U208:2.1|
10554 U208:2.3|
7336 U208:2.9|
416 U208:4.5|
1556 U208:6.3|
4008 U208:9.8|
11214 U209:**
4600 U209:12.1|+|
10144 U209:2.1|+|
10556 U209:2.3|+|
7338 U209:2.9|+|
418 U209:4.5|+|
1558 U209:6.3|+|
4010 U209:9.8|+|
10836 U20:**
7134 U20:A|A|
3802 U20:A|G|
40 U20:A|T|
9960 U20:C|A|
8224 U20:C|C|
4374 U20:C|T|
7688 U20:G|A|
2304 U20:T|A|
8684 U20:T|C|
9468 U20:T|G|
8958 U20:T|T|
11216 U210:*
420 U210:+|
11218 U211:**
422 U211:+|50.11|
4602 U211:+|64.92|
1560 U211:+|80.03|
4012 U211:+|88.84|
7340 U211:+|99.31|
11220 U212:**
10558 U212:+|108.8|
1562 U212:+|50.11|
4014 U212:+|64.92|
7342 U212:+|66.51|
424 U212:+|80.03|
10146 U212:+|85.12|
4604 U212:+|88.84|
11222 U213:*
426 U213:50.11|
4606 U213:64.92|
1564 U213:80.03|
4016 U213:88.84|
7344 U213:99.31|
11224 U214:**
5226 U214:50.11|66.51|
3342 U214:50.11|72.29|
428 U214:50.11|85.12|
9618 U214:64.92|135.83|
4608 U214:64.92|64.92|
9240 U214:64.92|66.51|
7896 U214:64.92|85.12|
1566 U214:80.03|64.92|
6416 U214:80.03|66.51|
10148 U214:80.03|85.12|
4018 U214:88.84|99.31|
7346 U214:99.31|99.31|
11226 U215:**
430 U215:50.11|64.92|
5852 U215:50.11|66.51|
2582 U215:50.11|72.29|
3344 U215:50.11|85.15|
9620 U215:64.92|64.92|
7898 U215:64.92|72.29|
9242 U215:64.92|85.15|
4610 U215:64.92|99.31|
6418 U215:80.03|72.29|
10150 U215:80.03|80.03|
1568 U215:80.03|85.15|
4020 U215:88.84|108.8|
7348 U215:99.31|85.15|
11228 U216:*
9622 U216:135.83|
1570 U216:64.92|
5228 U216:66.51|
3346 U216:72.29|
432 U216:85.12|
4022 U216:99.31|
11230 U217:**
9624 U217:135.83|85.15|
4612 U217:64.92|64.92|
1572 U217:64.92|85.12|
5230 U217:66.51|108.8|
6420 U217:66.51|66.51|
9244 U217:66.51|85.12|
5854 U217:72.29|50.11|
3348 U217:72.29|64.92|
434 U217:85.12|135.83|
4024 U217:99.31|135.83|
7350 U217:99.31|99.31|
11232 U218:**
9626 U218:135.83|85.15|
1574 U218:64.92|135.83|
9246 U218:66.51|135.83|
5232 U218:66.51|50.11|
6422 U218:66.51|64.92|
8422 U218:72.29|108.8|
3350 U218:72.29|135.83|
5856 U218:72.29|64.92|
6880 U218:72.29|66.51|
10560 U218:85.12|50.11|
2584 U218:85.12|64.92|
7900 U218:85.12|66.51|
436 U218:85.12|85.15|
10152 U218:85.12|99.31|
4026 U218:99.31|64.92|
7352 U218:99.31|80.03|
11234 U219:*
5234 U219:108.8|
438 U219:135.83|
5858 U219:50.11|
3352 U219:64.92|
6424 U219:66.51|
1576 U219:85.12|
9628 U219:85.15|
7354 U219:99.31|
10838 U21:*
3090 U21:A|
1204 U21:G|
42 U21:T|
11236 U220:**
5236 U220:108.8|64.92|
2586 U220:135.83|64.92|
440 U220:135.83|88.84|
5860 U220:50.11|85.12|
8424 U220:64.92|135.83|
8798 U220:64.92|64.92|
3354 U220:64.92|99.31|
6426 U220:66.51|108.8|
1578 U220:85.12|99.31|
9630 U220:85.15|64.92|
7356 U220:99.31|135.83|
11238 U221:**
5238 U221:108.8|85.15|
10562 U221:135.83|72.29|
7902 U221:135.83|80.03|
442 U221:135.83|99.31|
5862 U221:50.11|64.92|
3356 U221:64.92|64.92|
8800 U221:64.92|88.84|
6428 U221:66.51|99.31|
1580 U221:85.12|88.84|
9248 U221:85.12|99.31|
9632 U221:85.15|99.31|
7358 U221:99.31|85.15|
11240 U222:*
6430 U222:108.8|
7360 U222:135.83|
2588 U222:64.92|
5864 U222:85.12|
444 U222:88.84|
1582 U222:99.31|
11242 U223:**
6432 U223:108.8|99.31|
8426 U223:135.83|64.92|
7362 U223:135.83|88.84|
9634 U223:64.92|64.92|
5240 U223:64.92|66.51|
2590 U223:64.92|72.29|
8802 U223:64.92|80.03|
4028 U223:64.92|85.12|
5866 U223:85.12|80.03|
446 U223:88.84|99.31|
1584 U223:99.31|64.92|
3358 U223:99.31|80.03|
11244 U224:**
6434 U224:108.8|80.03|
7364 U224:135.83|80.03|
9636 U224:64.92|108.8|
7904 U224:64.92|64.92|
10564 U224:64.92|66.51|
2592 U224:64.92|80.03|
10154 U224:64.92|85.12|
8804 U224:64.92|99.31|
5868 U224:85.12|66.51|
448 U224:88.84|108.8|
3360 U224:99.31|72.29|
9250 U224:99.31|85.12|
4614 U224:99.31|85.15|
1586 U224:99.31|99.31|
11246 U225:*
1588 U225:64.92|
5242 U225:66.51|
2594 U225:72.29|
3362 U225:80.03|
4030 U225:85.12|
7366 U225:88.84|
450 U225:99.31|
11248 U226:**
8428 U226:64.92|108.8|
1590 U226:64.92|50.11|
9638 U226:64.92|66.51|
10156 U226:66.51|108.8|
5244 U226:66.51|66.51|
9892 U226:66.51|72.29|
2596 U226:72.29|66.51|
4616 U226:80.03|108.8|
3364 U226:80.03|72.29|
8806 U226:80.03|85.15|
10566 U226:85.12|64.92|
4032 U226:85.12|80.03|
7906 U226:85.12|99.31|
7368 U226:88.84|80.03|
6436 U226:99.31|64.92|
452 U226:99.31|80.03|
11250 U227:**
1592 U227:64.92|80.03|
8430 U227:64.92|85.15|
5246 U227:66.51|64.92|
10158 U227:66.51|66.51|
9894 U227:66.51|72.29|
2598 U227:72.29|72.29|
6882 U227:80.03|64.92|
3366 U227:80.03|66.51|
4618 U227:80.03|80.03|
8808 U227:80.03|99.31|
4034 U227:85.12|64.92|
10568 U227:85.12|66.51|
7908 U227:85.12|72.29|
7370 U227:88.84|72.29|
454 U227:99.31|50.11|
6438 U227:99.31|64.92|
11252 U228:*
4620 U228:108.8|
1594 U228:50.11|
6440 U228:64.92|
2600 U228:66.51|
3368 U228:72.29|
456 U228:80.03|
8810 U228:85.15|
7910 U228:99.31|
11254 U229:**
5870 U229:108.8|64.92|
4622 U229:108.8|85.15|
8432 U229:108.8|88.84|
1596 U229:50.11|85.12|
10570 U229:64.92|64.92|
6442 U229:64.92|66.51|
2602 U229:66.51|66.51|
3370 U229:72.29|50.11|
9026 U229:72.29|66.51|
4036 U229:80.03|66.51|
458 U229:80.03|72.29|
8812 U229:85.15|66.51|
7912 U229:99.31|80.03|
10840 U22:**
3092 U22:A|A|
5626 U22:A|C|
4998 U22:A|G|
6252 U22:A|T|
1206 U22:G|G|
8226 U22:G|T|
8960 U22:T|A|
44 U22:T|C|
9962 U22:T|G|
2306 U22:T|T|
11256 U230:**
4624 U230:108.8|66.51|
8434 U230:108.8|80.03|
1598 U230:50.11|72.29|
6444 U230:64.92|64.92|
10572 U230:64.92|80.03|
2604 U230:66.51|50.11|
5248 U230:66.51|64.92|
9640 U230:66.51|88.84|
3372 U230:72.29|66.51|
9028 U230:72.29|72.29|
9252 U230:72.29|99.31|
7372 U230:80.03|50.11|
4038 U230:80.03|85.12|
460 U230:80.03|85.15|
8814 U230:85.15|80.03|
7914 U230:99.31|66.51|
11258 U231:*
3374 U231:50.11|
5872 U231:64.92|
2606 U231:66.51|
462 U231:72.29|
7916 U231:80.03|
1600 U231:85.12|
4626 U231:85.15|
8436 U231:88.84|
11260 U232:**
3376 U232:50.11|66.51|
5874 U232:64.92|108.8|
10574 U232:64.92|64.92|
6884 U232:64.92|66.51|
9030 U232:66.51|50.11|
2608 U232:66.51|66.51|
6446 U232:66.51|72.29|
9642 U232:66.51|80.03|
5250 U232:66.51|85.12|
464 U232:72.29|80.03|
7918 U232:80.03|72.29|
1602 U232:85.12|99.31|
10160 U232:85.15|64.92|
4628 U232:85.15|66.51|
8438 U232:88.84|64.92|
11262 U233:**
3378 U233:50.11|66.51|
10576 U233:64.92|64.92|
6886 U233:64.92|72.29|
5876 U233:64.92|85.15|
9896 U233:66.51|50.11|
5252 U233:66.51|64.92|
2610 U233:66.51|66.51|
9254 U233:66.51|80.03|
9644 U233:66.51|99.31|
466 U233:72.29|99.31|
7920 U233:80.03|50.11|
1604 U233:85.12|80.03|
4630 U233:85.15|66.51|
10162 U233:85.15|80.03|
8440 U233:88.84|66.51|
11264 U234:*
5878 U234:108.8|
9032 U234:50.11|
8442 U234:64.92|
2612 U234:66.51|
6448 U234:72.29|
468 U234:80.03|
5254 U234:85.12|
1606 U234:99.31|
11266 U235:**
5880 U235:108.8|85.15|
9034 U235:50.11|66.51|
10578 U235:64.92|64.92|
8444 U235:64.92|66.51|
10164 U235:64.92|80.03|
9898 U235:66.51|50.11|
2614 U235:66.51|66.51|
6888 U235:66.51|72.29|
9256 U235:66.51|80.03|
7922 U235:72.29|50.11|
6450 U235:72.29|66.51|
470 U235:80.03|99.31|
5256 U235:85.12|64.92|
1608 U235:99.31|80.03|
11268 U236:*
7924 U236:50.11|
5258 U236:64.92|
2616 U236:66.51|
6890 U236:72.29|
1610 U236:80.03|
5882 U236:85.15|
472 U236:99.31|
11270 U237:**
7926 U237:50.11|66.51|
5260 U237:64.92|64.92|
10580 U237:64.92|80.03|
2618 U237:66.51|50.11|
6452 U237:66.51|64.92|
3380 U237:66.51|66.51|
9036 U237:66.51|72.29|
8446 U237:66.51|80.03|
4040 U237:66.51|85.12|
6892 U237:72.29|66.51|
10166 U237:80.03|66.51|
1612 U237:80.03|72.29|
9258 U237:80.03|99.31|
5884 U237:85.15|66.51|
474 U237:99.31|85.15|
9646 U237:99.31|88.84|
11272 U238:*
2620 U238:50.11|
5262 U238:64.92|
3382 U238:66.51|
1614 U238:72.29|
8448 U238:80.03|
4042 U238:85.12|
476 U238:85.15|
9648 U238:88.84|
9260 U238:99.31|
11274 U239:**
2622 U239:50.11|72.29|
5264 U239:64.92|64.92|
6894 U239:66.51|64.92|
3384 U239:66.51|66.51|
7928 U239:66.51|72.29|
4632 U239:66.51|80.03|
1616 U239:72.29|80.03|
10582 U239:80.03|66.51|
8450 U239:80.03|85.15|
8816 U239:80.03|99.31|
4044 U239:85.12|64.92|
478 U239:85.15|50.11|
9650 U239:88.84|80.03|
9262 U239:99.31|64.92|
10842 U23:**
3094 U23:A|A|
5000 U23:A|T|
1208 U23:G|A|
10374 U23:G|G|
8228 U23:G|T|
8962 U23:T|A|
46 U23:T|C|
2308 U23:T|T|
11276 U240:*
480 U240:50.11|
4046 U240:64.92|
3386 U240:66.51|
2624 U240:72.29|
1618 U240:80.03|
8452 U240:85.15|
8818 U240:99.31|
11278 U241:**
482 U241:50.11|108.8|
4048 U241:64.92|80.03|
9264 U241:64.92|85.12|
6896 U241:64.92|99.31|
5886 U241:66.51|66.51|
3388 U241:66.51|72.29|
10168 U241:66.51|85.12|
7930 U241:72.29|64.92|
2626 U241:72.29|80.03|
9652 U241:80.03|108.8|
4634 U241:80.03|85.15|
1620 U241:80.03|99.31|
8454 U241:85.15|80.03|
8820 U241:99.31|99.31|
11280 U242:*
484 U242:108.8|
7932 U242:64.92|
5888 U242:66.51|
3390 U242:72.29|
2628 U242:80.03|
9266 U242:85.12|
4636 U242:85.15|
1622 U242:99.31|
11282 U243:**
486 U243:108.8|99.31|
7934 U243:64.92|80.03|
5890 U243:66.51|64.92|
10584 U243:66.51|72.29|
3392 U243:72.29|64.92|
8456 U243:80.03|64.92|
5266 U243:80.03|85.15|
2630 U243:80.03|99.31|
9268 U243:85.12|99.31|
4638 U243:85.15|64.92|
6898 U243:99.31|64.92|
1624 U243:99.31|88.84|
11284 U244:*
3394 U244:64.92|
10586 U244:72.29|
7936 U244:80.03|
5268 U244:85.15|
1626 U244:88.84|
488 U244:99.31|
11286 U245:**
8458 U245:64.92|108.8|
3396 U245:64.92|135.83|
5892 U245:64.92|64.92|
6900 U245:64.92|66.51|
10588 U245:72.29|50.11|
7938 U245:80.03|66.51|
5270 U245:85.15|50.11|
7374 U245:85.15|80.03|
1628 U245:88.84|135.83|
9270 U245:99.31|135.83|
2632 U245:99.31|64.92|
490 U245:99.31|85.15|
10170 U245:99.31|99.31|
11288 U246:*
8460 U246:108.8|
1630 U246:135.83|
5272 U246:50.11|
2634 U246:64.92|
6902 U246:66.51|
7376 U246:80.03|
492 U246:85.15|
10172 U246:99.31|
11290 U247:**
8462 U247:108.8|85.15|
1632 U247:135.83|85.15|
4640 U247:135.83|99.31|
10590 U247:50.11|66.51|
5274 U247:50.11|72.29|
4050 U247:64.92|108.8|
5894 U247:64.92|66.51|
2636 U247:64.92|72.29|
6904 U247:66.51|66.51|
7940 U247:66.51|72.29|
7378 U247:80.03|85.15|
494 U247:85.15|64.92|
10174 U247:99.31|80.03|
11292 U248:*
4052 U248:108.8|
496 U248:64.92|
5896 U248:66.51|
2638 U248:72.29|
10176 U248:80.03|
1634 U248:85.15|
4642 U248:99.31|
11294 U249:**
4054 U249:108.8|64.92|
498 U249:64.92|80.03|
10592 U249:66.51|108.8|
5898 U249:66.51|50.11|
6906 U249:66.51|80.03|
2640 U249:72.29|50.11|
10178 U249:80.03|85.12|
1636 U249:85.15|50.11|
8464 U249:85.15|64.92|
7380 U249:85.15|66.51|
4644 U249:99.31|88.84|
10844 U24:*
3096 U24:A|
48 U24:C|
1210 U24:G|
2310 U24:T|
11296 U250:*
10594 U250:108.8|
1638 U250:50.11|
4056 U250:64.92|
7382 U250:66.51|
500 U250:80.03|
10180 U250:85.12|
4646 U250:88.84|
11298 U251:**
10596 U251:108.8|+|
1640 U251:50.11|+|
4058 U251:64.92|+|
7384 U251:66.51|+|
502 U251:80.03|+|
10182 U251:85.12|+|
4648 U251:88.84|+|
11300 U252:*
504 U252:+|
11302 U253:**
506 U253:+|1.5|
1642 U253:+|1.6|
4650 U253:+|1.9|
7386 U253:+|3.1|
4060 U253:+|3.6|
11304 U254:**
10598 U254:+|1.3|
1644 U254:+|1.5|
508 U254:+|1.6|
4062 U254:+|1.9|
4652 U254:+|3.6|
11306 U255:*
510 U255:1.5|
1646 U255:1.6|
4654 U255:1.9|
7388 U255:3.1|
4064 U255:3.6|
11308 U256:**
3398 U256:1.5|0.9|
512 U256:1.5|1.6|
5276 U256:1.5|1.9|
10184 U256:1.6|1.6|
1648 U256:1.6|1.9|
4656 U256:1.9|1.3|
7942 U256:1.9|1.6|
9272 U256:1.9|1.9|
9654 U256:1.9|3.1|
7390 U256:3.1|3.1|
4066 U256:3.6|3.1|
11310 U257:**
2642 U257:1.5|0.9|
3400 U257:1.5|1.6|
514 U257:1.5|1.9|
6454 U257:1.6|0.9|
1650 U257:1.6|1.6|
7944 U257:1.9|0.9|
9274 U257:1.9|1.6|
9656 U257:1.9|1.9|
4658 U257:1.9|3.1|
7392 U257:3.1|1.6|
4068 U257:3.6|1.3|
11312 U258:*
3402 U258:0.9|
4660 U258:1.3|
516 U258:1.6|
1652 U258:1.9|
4070 U258:3.1|
11314 U259:**
5900 U259:0.9|1.5|
3404 U259:0.9|1.9|
4662 U259:1.3|1.9|
518 U259:1.6|3.1|
5278 U259:1.9|1.3|
1654 U259:1.9|1.6|
6456 U259:1.9|1.9|
9658 U259:3.1|1.6|
4072 U259:3.1|3.1|
10846 U25:**
3098 U25:A|A|
6708 U25:A|T|
50 U25:C|C|
5628 U25:C|T|
1212 U25:G|A|
5002 U25:G|T|
7690 U25:T|A|
9096 U25:T|C|
10376 U25:T|G|
2312 U25:T|T|
11316 U260:**
5902 U260:0.9|1.3|
6908 U260:0.9|1.9|
3406 U260:0.9|3.1|
4664 U260:1.3|3.1|
10600 U260:1.6|1.5|
520 U260:1.6|1.6|
2644 U260:1.6|1.9|
10186 U260:1.6|3.1|
5280 U260:1.9|1.5|
6458 U260:1.9|1.9|
1656 U260:1.9|3.1|
7394 U260:3.1|1.6|
4074 U260:3.1|1.9|
11318 U261:*
5282 U261:1.3|
5904 U261:1.5|
1658 U261:1.6|
3408 U261:1.9|
522 U261:3.1|
11320 U262:**
5284 U262:1.3|1.9|
5906 U262:1.5|1.6|
9660 U262:1.6|1.9|
1660 U262:1.6|3.1|
6460 U262:1.9|1.3|
3410 U262:1.9|3.1|
2646 U262:3.1|1.9|
7396 U262:3.1|3.1|
524 U262:3.1|3.6|
11322 U263:**
5286 U263:1.3|1.6|
5908 U263:1.5|1.9|
9276 U263:1.6|3.1|
1662 U263:1.6|3.6|
6910 U263:1.9|1.3|
3412 U263:1.9|1.9|
6462 U263:1.9|3.1|
8822 U263:1.9|3.6|
10602 U263:3.1|0.9|
7398 U263:3.1|1.6|
526 U263:3.1|3.1|
11324 U264:*
6464 U264:1.3|
5910 U264:1.6|
2648 U264:1.9|
1664 U264:3.1|
528 U264:3.6|
11326 U265:**
8824 U265:1.3|1.6|
6466 U265:1.3|3.1|
5912 U265:1.6|1.6|
2650 U265:1.9|0.9|
9662 U265:1.9|1.3|
4076 U265:1.9|1.6|
5288 U265:1.9|1.9|
1666 U265:3.1|1.3|
3414 U265:3.1|1.6|
8466 U265:3.1|1.9|
7400 U265:3.1|3.6|
530 U265:3.6|3.1|
11328 U266:**
6468 U266:1.3|1.6|
8826 U266:1.3|3.1|
5914 U266:1.6|1.9|
9664 U266:1.9|1.3|
2652 U266:1.9|1.6|
7946 U266:1.9|1.9|
3416 U266:3.1|0.9|
4666 U266:3.1|1.6|
1668 U266:3.1|3.1|
532 U266:3.6|1.3|
11330 U267:*
2654 U267:0.9|
1670 U267:1.3|
3418 U267:1.6|
5290 U267:1.9|
534 U267:3.1|
7402 U267:3.6|
11332 U268:**
2656 U268:0.9|1.9|
1672 U268:1.3|1.5|
9666 U268:1.3|1.9|
3420 U268:1.6|0.9|
4668 U268:1.6|1.3|
4078 U268:1.6|1.6|
7948 U268:1.6|3.1|
9900 U268:1.9|0.9|
8468 U268:1.9|1.3|
5292 U268:1.9|1.9|
536 U268:3.1|1.6|
6470 U268:3.1|1.9|
7404 U268:3.6|1.6|
11334 U269:**
2658 U269:0.9|0.9|
1674 U269:1.3|1.6|
7950 U269:1.6|0.9|
4080 U269:1.6|1.3|
4670 U269:1.6|1.6|
3422 U269:1.6|1.9|
8828 U269:1.6|3.1|
9902 U269:1.9|0.9|
5294 U269:1.9|1.3|
8470 U269:1.9|1.6|
10188 U269:1.9|1.9|
6472 U269:3.1|1.3|
538 U269:3.1|1.5|
7406 U269:3.6|0.9|
10848 U26:*
1214 U26:A|
52 U26:C|
10378 U26:G|
2314 U26:T|
11336 U270:*
3424 U270:0.9|
4672 U270:1.3|
1676 U270:1.5|
540 U270:1.6|
2660 U270:1.9|
7952 U270:3.1|
11338 U271:**
3426 U271:0.9|1.5|
9038 U271:0.9|1.9|
4674 U271:1.3|1.6|
5916 U271:1.3|1.9|
8472 U271:1.3|3.6|
1678 U271:1.5|1.6|
542 U271:1.6|0.9|
4082 U271:1.6|1.9|
2662 U271:1.9|1.9|
7954 U271:3.1|1.6|
11340 U272:**
9040 U272:0.9|0.9|
3428 U272:0.9|1.9|
9278 U272:0.9|3.1|
8474 U272:1.3|1.6|
4676 U272:1.3|1.9|
1680 U272:1.5|0.9|
7408 U272:1.6|1.5|
544 U272:1.6|1.6|
2664 U272:1.9|1.5|
5296 U272:1.9|1.9|
9668 U272:1.9|3.6|
7956 U272:3.1|1.9|
11342 U273:*
546 U273:0.9|
3430 U273:1.5|
1682 U273:1.6|
2666 U273:1.9|
8476 U273:3.6|
11344 U274:**
548 U274:0.9|1.6|
3432 U274:1.5|1.9|
7958 U274:1.6|0.9|
4678 U274:1.6|1.9|
1684 U274:1.6|3.1|
6474 U274:1.9|0.9|
5918 U274:1.9|1.3|
9042 U274:1.9|1.5|
5298 U274:1.9|1.6|
2668 U274:1.9|1.9|
8478 U274:3.6|1.3|
11346 U275:**
550 U275:0.9|3.1|
3434 U275:1.5|1.9|
7960 U275:1.6|1.5|
1686 U275:1.6|1.6|
4680 U275:1.6|1.9|
6912 U275:1.9|0.9|
5300 U275:1.9|1.3|
9904 U275:1.9|1.5|
5920 U275:1.9|1.6|
2670 U275:1.9|1.9|
9670 U275:1.9|3.1|
8480 U275:3.6|1.9|
11348 U276:*
6476 U276:0.9|
5922 U276:1.3|
9044 U276:1.5|
552 U276:1.6|
2672 U276:1.9|
1688 U276:3.1|
11350 U277:**
7962 U277:0.9|1.5|
6478 U277:0.9|1.9|
5924 U277:1.3|1.6|
8482 U277:1.3|1.9|
9046 U277:1.5|1.9|
5302 U277:1.6|1.3|
554 U277:1.6|3.1|
6914 U277:1.9|0.9|
9906 U277:1.9|1.5|
9280 U277:1.9|1.6|
2674 U277:1.9|1.9|
1690 U277:3.1|1.6|
11352 U278:*
6916 U278:0.9|
5304 U278:1.3|
7964 U278:1.5|
1692 U278:1.6|
2676 U278:1.9|
556 U278:3.1|
11354 U279:**
6918 U279:0.9|1.9|
5306 U279:1.3|1.9|
7966 U279:1.5|1.9|
1694 U279:1.6|0.9|
5926 U279:1.6|1.9|
9282 U279:1.6|3.1|
9048 U279:1.9|0.9|
2678 U279:1.9|1.5|
4084 U279:1.9|1.6|
3436 U279:1.9|1.9|
558 U279:3.1|1.6|
9672 U279:3.1|3.6|
10850 U27:**
3100 U27:A|A|
3804 U27:A|G|
1216 U27:A|T|
9098 U27:C|C|
9470 U27:C|G|
54 U27:C|T|
10380 U27:G|A|
2316 U27:T|A|
8230 U27:T|C|
5004 U27:T|G|
4376 U27:T|T|
11356 U280:*
1696 U280:0.9|
2680 U280:1.5|
560 U280:1.6|
3438 U280:1.9|
9284 U280:3.1|
9674 U280:3.6|
11358 U281:**
1698 U281:0.9|1.6|
2682 U281:1.5|0.9|
4086 U281:1.6|1.3|
562 U281:1.6|1.5|
8484 U281:1.6|1.6|
10604 U281:1.6|1.9|
8830 U281:1.6|3.1|
7968 U281:1.9|0.9|
5308 U281:1.9|1.3|
4682 U281:1.9|1.6|
3440 U281:1.9|1.9|
9286 U281:3.1|1.9|
9676 U281:3.6|1.6|
11360 U282:*
2684 U282:0.9|
4088 U282:1.3|
564 U282:1.5|
1700 U282:1.6|
3442 U282:1.9|
8832 U282:3.1|
11362 U283:**
2686 U283:0.9|1.6|
7970 U283:0.9|1.9|
4090 U283:1.3|1.6|
566 U283:1.5|1.3|
9678 U283:1.6|1.3|
4684 U283:1.6|1.6|
1702 U283:1.6|3.1|
3444 U283:1.9|0.9|
9288 U283:1.9|1.6|
5928 U283:1.9|1.9|
6920 U283:1.9|3.1|
8834 U283:3.1|3.1|
11364 U284:*
3446 U284:0.9|
568 U284:1.3|
2688 U284:1.6|
5930 U284:1.9|
1704 U284:3.1|
11366 U285:**
3448 U285:0.9|1.9|
570 U285:1.3|3.1|
5310 U285:1.6|1.6|
4686 U285:1.6|1.9|
2690 U285:1.6|3.1|
10606 U285:1.9|0.9|
7972 U285:1.9|1.6|
5932 U285:1.9|1.9|
6922 U285:3.1|1.3|
1706 U285:3.1|3.6|
11368 U286:*
10608 U286:0.9|
6924 U286:1.3|
5312 U286:1.6|
3450 U286:1.9|
572 U286:3.1|
1708 U286:3.6|
11370 U287:**
10610 U287:0.9|1.5|
6926 U287:1.3|1.9|
5314 U287:1.6|1.5|
7410 U287:1.6|1.6|
7974 U287:1.6|1.9|
5934 U287:1.9|1.3|
3452 U287:1.9|3.1|
574 U287:3.1|1.6|
2692 U287:3.1|1.9|
9290 U287:3.1|3.1|
1710 U287:3.6|3.1|
11372 U288:*
5936 U288:1.3|
5316 U288:1.5|
576 U288:1.6|
2694 U288:1.9|
1712 U288:3.1|
11374 U289:**
8486 U289:1.3|1.6|
5938 U289:1.3|1.9|
5318 U289:1.5|0.9|
10612 U289:1.5|1.9|
7412 U289:1.6|1.6|
578 U289:1.6|1.9|
2696 U289:1.9|0.9|
4092 U289:1.9|1.3|
6928 U289:1.9|1.9|
1714 U289:3.1|1.6|
4688 U289:3.1|3.1|
10852 U28:*
2318 U28:A|
8232 U28:C|
3806 U28:G|
56 U28:T|
11376 U290:*
2698 U290:0.9|
4094 U290:1.3|
1716 U290:1.6|
580 U290:1.9|
4690 U290:3.1|
11378 U291:**
2700 U291:0.9|1.5|
4096 U291:1.3|1.9|
1718 U291:1.6|1.5|
10190 U291:1.6|1.6|
7414 U291:1.6|1.9|
10614 U291:1.9|1.3|
5940 U291:1.9|1.5|
582 U291:1.9|1.6|
4692 U291:3.1|3.6|
11380 U292:*
10616 U292:1.3|
1720 U292:1.5|
584 U292:1.6|
4098 U292:1.9|
4694 U292:3.6|
11382 U293:**
10618 U293:1.3|+|
1722 U293:1.5|+|
586 U293:1.6|+|
4100 U293:1.9|+|
4696 U293:3.6|+|
11384 U294:*
588 U294:+|
11386 U295:**
590 U295:+|0|
1724 U295:+|1|
4102 U295:+|2|
11388 U296:**
1726 U296:+|0|
592 U296:+|1|
4698 U296:+|2|
11390 U297:*
594 U297:0|
1728 U297:1|
4104 U297:2|
11392 U298:**
3454 U298:0|0|
596 U298:0|1|
6480 U298:1|0|
1730 U298:1|1|
9680 U298:1|2|
4106 U298:2|2|
11394 U299:**
2702 U299:0|0|
598 U299:0|1|
6482 U299:1|0|
1732 U299:1|1|
4700 U299:1|2|
4108 U299:2|1|
10854 U29:**
3102 U29:A|A|
2320 U29:A|T|
9100 U29:C|A|
8686 U29:C|C|
8234 U29:C|T|
9472 U29:G|A|
3808 U29:G|T|
58 U29:T|A|
1218 U29:T|C|
6710 U29:T|G|
5630 U29:T|T|
10800 U2:**
3788 U2:C|A|
6232 U2:G|A|
9952 U2:G|G|
7122 U2:G|T|
4 U2:T|A|
6700 U2:T|C|
4362 U2:T|G|
11396 U300:*
3456 U300:0|
600 U300:1|
4110 U300:2|
11398 U301:**
5942 U301:0|0|
3458 U301:0|1|
1734 U301:1|1|
602 U301:1|2|
9682 U301:2|1|
4112 U301:2|2|
11400 U302:**
5320 U302:0|0|
5944 U302:0|1|
3460 U302:0|2|
7976 U302:1|0|
604 U302:1|1|
1736 U302:1|2|
4114 U302:2|1|
11402 U303:*
5946 U303:0|
1738 U303:1|
606 U303:2|
11404 U304:**
5948 U304:0|1|
5322 U304:1|1|
1740 U304:1|2|
2704 U304:2|1|
608 U304:2|2|
11406 U305:**
5950 U305:0|1|
6484 U305:0|2|
3462 U305:1|1|
1742 U305:1|2|
10620 U305:2|0|
7416 U305:2|1|
610 U305:2|2|
11408 U306:*
2706 U306:1|
612 U306:2|
11410 U307:**
2708 U307:1|0|
4116 U307:1|1|
6486 U307:1|2|
1744 U307:2|1|
614 U307:2|2|
11412 U308:**
5952 U308:1|0|
2710 U308:1|1|
8836 U308:1|2|
3464 U308:2|0|
616 U308:2|1|
1746 U308:2|2|
11414 U309:*
2712 U309:0|
1748 U309:1|
618 U309:2|
10856 U30:*
60 U30:A|
1220 U30:C|
6712 U30:G|
2322 U30:T|
11416 U310:**
2714 U310:0|0|
10192 U310:0|1|
1750 U310:1|0|
4118 U310:1|1|
7978 U310:1|2|
620 U310:2|1|
11418 U311:**
2716 U311:0|0|
5324 U311:0|1|
3466 U311:1|0|
1752 U311:1|1|
8838 U311:1|2|
622 U311:2|0|
6488 U311:2|1|
11420 U312:*
1754 U312:0|
624 U312:1|
7980 U312:2|
11422 U313:**
2718 U313:0|0|
1756 U313:0|1|
626 U313:1|0|
4702 U313:1|1|
8488 U313:1|2|
7982 U313:2|1|
11424 U314:**
1758 U314:0|0|
5326 U314:0|1|
9292 U314:0|2|
4704 U314:1|0|
628 U314:1|1|
7984 U314:2|0|
11426 U315:*
630 U315:0|
1760 U315:1|
8490 U315:2|
11428 U316:**
2720 U316:0|0|
632 U316:0|1|
4706 U316:1|0|
5954 U316:1|1|
1762 U316:1|2|
8492 U316:2|1|
11430 U317:**
2722 U317:0|0|
5328 U317:0|1|
634 U317:0|2|
4708 U317:1|0|
1764 U317:1|1|
8494 U317:2|0|
11432 U318:*
2724 U318:0|
636 U318:1|
1766 U318:2|
11434 U319:**
2726 U319:0|0|
9294 U319:0|1|
8496 U319:1|0|
5330 U319:1|1|
638 U319:1|2|
1768 U319:2|1|
10858 U31:**
10382 U31:A|A|
62 U31:A|C|
9102 U31:A|G|
3104 U31:A|T|
1222 U31:C|C|
4378 U31:C|T|
6714 U31:G|G|
2324 U31:T|C|
7692 U31:T|G|
5632 U31:T|T|
11436 U320:*
2728 U320:0|
1770 U320:1|
640 U320:2|
11438 U321:**
2730 U321:0|0|
4120 U321:0|1|
1772 U321:1|0|
5332 U321:1|1|
9296 U321:1|2|
642 U321:2|1|
9684 U321:2|2|
11440 U322:*
1774 U322:0|
644 U322:1|
9298 U322:2|
11442 U323:**
2732 U323:0|0|
1776 U323:0|1|
646 U323:1|0|
4122 U323:1|1|
8840 U323:1|2|
9300 U323:2|1|
11444 U324:*
648 U324:0|
1778 U324:1|
8842 U324:2|
11446 U325:**
3468 U325:0|0|
650 U325:0|1|
4124 U325:1|1|
1780 U325:1|2|
8844 U325:2|2|
11448 U326:*
3470 U326:0|
652 U326:1|
1782 U326:2|
11450 U327:**
10622 U327:0|0|
3472 U327:0|1|
4710 U327:1|1|
654 U327:1|2|
6930 U327:2|1|
1784 U327:2|2|
11452 U328:*
10624 U328:0|
3474 U328:1|
656 U328:2|
11454 U329:**
10626 U329:0|0|
5334 U329:1|0|
5956 U329:1|1|
3476 U329:1|2|
658 U329:2|1|
1786 U329:2|2|
10860 U32:*
10384 U32:A|
64 U32:C|
6716 U32:G|
3106 U32:T|
11456 U330:*
5336 U330:0|
660 U330:1|
1788 U330:2|
11458 U331:**
5338 U331:0|0|
2734 U331:1|0|
662 U331:1|1|
1790 U331:2|1|
4712 U331:2|2|
11460 U332:*
2736 U332:0|
664 U332:1|
4714 U332:2|
11462 U333:**
2738 U333:0|0|
6932 U333:0|1|
1792 U333:1|0|
666 U333:1|1|
4716 U333:2|2|
11464 U334:*
1794 U334:0|
668 U334:1|
4718 U334:2|
11466 U335:**
1796 U335:0|+|
670 U335:1|+|
4720 U335:2|+|
11468 U336:*
672 U336:+|
11470 U337:**
4126 U337:+|-10.03|
674 U337:+|-11.85|
1798 U337:+|-13.48|
7418 U337:+|-8.11|
4722 U337:+|-9.45|
11472 U338:**
4724 U338:+|-10.03|
1800 U338:+|-11.85|
10628 U338:+|-13.1|
676 U338:+|-13.48|
10194 U338:+|-14|
7420 U338:+|-18.66|
4128 U338:+|-9.45|
11474 U339:*
4130 U339:-10.03|
678 U339:-11.85|
1802 U339:-13.48|
7422 U339:-8.11|
4726 U339:-9.45|
10862 U33:**
10386 U33:A|T|
8236 U33:C|A|
66 U33:C|C|
1224 U33:C|G|
5006 U33:C|T|
7694 U33:G|A|
9104 U33:G|G|
6718 U33:G|T|
3108 U33:T|G|
11476 U340:**
4132 U340:-10.03|-8.11|
680 U340:-11.85|-14|
3478 U340:-11.85|-15.01|
5340 U340:-11.85|-18.66|
10196 U340:-13.48|-14|
6490 U340:-13.48|-18.66|
1804 U340:-13.48|-9.45|
7424 U340:-8.11|-8.11|
9686 U340:-9.45|-11.08|
4728 U340:-9.45|-13.1|
7986 U340:-9.45|-14|
9302 U340:-9.45|-18.66|
11478 U341:**
4134 U341:-10.03|-13.1|
3480 U341:-11.85|-14|
2740 U341:-11.85|-15.01|
5958 U341:-11.85|-18.66|
682 U341:-11.85|-9.45|
10198 U341:-13.48|-13.48|
1806 U341:-13.48|-14|
6492 U341:-13.48|-15.01|
7426 U341:-8.11|-14|
9304 U341:-9.45|-14|
7988 U341:-9.45|-15.01|
4730 U341:-9.45|-8.11|
9688 U341:-9.45|-9.45|
11480 U342:*
9690 U342:-11.08|
4732 U342:-13.1|
684 U342:-14|
3482 U342:-15.01|
5342 U342:-18.66|
4136 U342:-8.11|
1808 U342:-9.45|
11482 U343:**
9692 U343:-11.08|-14|
4734 U343:-13.1|-9.45|
686 U343:-14|-11.08|
5960 U343:-15.01|-11.85|
3484 U343:-15.01|-9.45|
5344 U343:-18.66|-13.1|
9306 U343:-18.66|-14|
6494 U343:-18.66|-18.66|
4138 U343:-8.11|-11.08|
7428 U343:-8.11|-8.11|
1810 U343:-9.45|-14|
11484 U344:**
9694 U344:-11.08|-14|
4736 U344:-13.1|-11.08|
10630 U344:-14|-11.85|
688 U344:-14|-14|
7990 U344:-14|-18.66|
10200 U344:-14|-8.11|
2742 U344:-14|-9.45|
3486 U344:-15.01|-11.08|
5962 U344:-15.01|-13.1|
6934 U344:-15.01|-18.66|
9308 U344:-18.66|-11.08|
5346 U344:-18.66|-11.85|
6496 U344:-18.66|-9.45|
7430 U344:-8.11|-13.48|
4140 U344:-8.11|-9.45|
1812 U344:-9.45|-11.08|
11486 U345:*
690 U345:-11.08|
5964 U345:-11.85|
5348 U345:-13.1|
1814 U345:-14|
6498 U345:-18.66|
7432 U345:-8.11|
3488 U345:-9.45|
11488 U346:**
692 U346:-11.08|-10.03|
2744 U346:-11.08|-9.45|
5966 U346:-11.85|-14|
5350 U346:-13.1|-9.45|
1816 U346:-14|-8.11|
9696 U346:-14|-9.45|
6500 U346:-18.66|-13.1|
7434 U346:-8.11|-11.08|
8498 U346:-9.45|-11.08|
8846 U346:-9.45|-13.1|
3490 U346:-9.45|-8.11|
11490 U347:**
7992 U347:-11.08|-13.48|
10632 U347:-11.08|-15.01|
694 U347:-11.08|-8.11|
5968 U347:-11.85|-9.45|
5352 U347:-13.1|-14|
1818 U347:-14|-10.03|
9310 U347:-14|-8.11|
6502 U347:-18.66|-8.11|
7436 U347:-8.11|-14|
8848 U347:-9.45|-10.03|
6936 U347:-9.45|-13.1|
3492 U347:-9.45|-9.45|
11492 U348:*
696 U348:-10.03|
7438 U348:-11.08|
6504 U348:-13.1|
5970 U348:-14|
1820 U348:-8.11|
2746 U348:-9.45|
11494 U349:**
698 U349:-10.03|-8.11|
7440 U349:-11.08|-10.03|
8500 U349:-11.08|-9.45|
8850 U349:-13.1|-13.48|
6506 U349:-13.1|-8.11|
5972 U349:-14|-13.48|
1822 U349:-8.11|-13.1|
3494 U349:-8.11|-13.48|
9698 U349:-9.45|-13.1|
4142 U349:-9.45|-14|
2748 U349:-9.45|-15.01|
5354 U349:-9.45|-18.66|
10864 U34:*
7696 U34:A|
68 U34:C|
1226 U34:G|
5008 U34:T|
11496 U350:**
700 U350:-10.03|-13.1|
7442 U350:-11.08|-13.48|
6508 U350:-13.1|-13.48|
8852 U350:-13.1|-8.11|
5974 U350:-14|-18.66|
4738 U350:-8.11|-14|
3496 U350:-8.11|-15.01|
1824 U350:-8.11|-8.11|
9700 U350:-9.45|-13.1|
2750 U350:-9.45|-13.48|
10202 U350:-9.45|-14|
10634 U350:-9.45|-18.66|
7994 U350:-9.45|-9.45|
11498 U351:*
7444 U351:-10.03|
1826 U351:-13.1|
3498 U351:-13.48|
4144 U351:-14|
2752 U351:-15.01|
5356 U351:-18.66|
702 U351:-8.11|
8502 U351:-9.45|
11500 U352:**
7446 U352:-10.03|-13.48|
1828 U352:-13.1|-11.85|
9702 U352:-13.1|-18.66|
4740 U352:-13.48|-13.1|
8854 U352:-13.48|-14|
3500 U352:-13.48|-15.01|
10636 U352:-14|-13.1|
4146 U352:-14|-13.48|
7996 U352:-14|-8.11|
2754 U352:-15.01|-18.66|
10204 U352:-18.66|-13.1|
9908 U352:-18.66|-15.01|
5358 U352:-18.66|-18.66|
704 U352:-8.11|-13.48|
6510 U352:-8.11|-9.45|
8504 U352:-9.45|-13.1|
11502 U353:**
7448 U353:-10.03|-15.01|
1830 U353:-13.1|-13.48|
4742 U353:-13.48|-13.48|
3502 U353:-13.48|-18.66|
8856 U353:-13.48|-8.11|
6938 U353:-13.48|-9.45|
4148 U353:-14|-13.1|
7998 U353:-14|-15.01|
10638 U353:-14|-18.66|
2756 U353:-15.01|-15.01|
5360 U353:-18.66|-13.1|
9910 U353:-18.66|-15.01|
10206 U353:-18.66|-18.66|
706 U353:-8.11|-11.85|
6512 U353:-8.11|-13.1|
8506 U353:-9.45|-14|
11504 U354:*
1832 U354:-11.85|
4744 U354:-13.1|
708 U354:-13.48|
8858 U354:-14|
3504 U354:-15.01|
2758 U354:-18.66|
8000 U354:-8.11|
6514 U354:-9.45|
11506 U355:**
1834 U355:-11.85|-14|
8508 U355:-13.1|-10.03|
4746 U355:-13.1|-14|
5976 U355:-13.1|-9.45|
710 U355:-13.48|-15.01|
4150 U355:-13.48|-18.66|
8860 U355:-14|-18.66|
3506 U355:-15.01|-11.85|
9050 U355:-15.01|-18.66|
2760 U355:-18.66|-18.66|
8002 U355:-8.11|-13.48|
6516 U355:-9.45|-18.66|
11508 U356:**
1836 U356:-11.85|-15.01|
8510 U356:-13.1|-13.48|
4748 U356:-13.1|-18.66|
7450 U356:-13.48|-11.85|
712 U356:-13.48|-14|
8862 U356:-14|-13.48|
9052 U356:-15.01|-15.01|
3508 U356:-15.01|-18.66|
9312 U356:-15.01|-8.11|
9704 U356:-18.66|-10.03|
2762 U356:-18.66|-11.85|
5362 U356:-18.66|-9.45|
8004 U356:-8.11|-18.66|
6518 U356:-9.45|-9.45|
11510 U357:*
8512 U357:-10.03|
3510 U357:-11.85|
8006 U357:-13.48|
1838 U357:-14|
714 U357:-15.01|
2764 U357:-18.66|
5978 U357:-9.45|
11512 U358:**
8514 U358:-10.03|-13.1|
3512 U358:-11.85|-18.66|
8008 U358:-13.48|-15.01|
4750 U358:-14|-18.66|
1840 U358:-14|-8.11|
10208 U358:-14|-9.45|
716 U358:-15.01|-13.48|
9054 U358:-18.66|-11.85|
9706 U358:-18.66|-13.48|
5364 U358:-18.66|-14|
6520 U358:-18.66|-15.01|
2766 U358:-18.66|-18.66|
5980 U358:-9.45|-13.1|
6940 U358:-9.45|-18.66|
11514 U359:**
8516 U359:-10.03|-18.66|
3514 U359:-11.85|-18.66|
8010 U359:-13.48|-11.85|
1842 U359:-14|-13.48|
4752 U359:-14|-18.66|
718 U359:-15.01|-8.11|
9912 U359:-18.66|-11.85|
5366 U359:-18.66|-13.1|
9314 U359:-18.66|-13.48|
2768 U359:-18.66|-18.66|
9708 U359:-18.66|-8.11|
5982 U359:-9.45|-14|
6942 U359:-9.45|-15.01|
10640 U359:-9.45|-9.45|
10866 U35:**
7698 U35:A|A|
8238 U35:A|C|
2326 U35:C|A|
70 U35:C|T|
1228 U35:G|C|
9964 U35:G|G|
5634 U35:G|T|
5010 U35:T|A|
7136 U35:T|C|
6720 U35:T|T|
11516 U360:*
9056 U360:-11.85|
5984 U360:-13.1|
720 U360:-13.48|
5368 U360:-14|
6522 U360:-15.01|
2770 U360:-18.66|
1844 U360:-8.11|
10210 U360:-9.45|
11518 U361:**
9058 U361:-11.85|-18.66|
5986 U361:-13.1|-14|
8518 U361:-13.1|-18.66|
10642 U361:-13.1|-9.45|
722 U361:-13.48|-8.11|
5370 U361:-14|-13.1|
8012 U361:-15.01|-11.85|
6524 U361:-15.01|-18.66|
9914 U361:-18.66|-11.85|
9316 U361:-18.66|-13.48|
6944 U361:-18.66|-15.01|
2772 U361:-18.66|-18.66|
1846 U361:-8.11|-13.48|
10212 U361:-9.45|-13.48|
11520 U362:*
8014 U362:-11.85|
5372 U362:-13.1|
1848 U362:-13.48|
5988 U362:-14|
6946 U362:-15.01|
2774 U362:-18.66|
724 U362:-8.11|
10644 U362:-9.45|
11522 U363:**
8016 U363:-11.85|-18.66|
5374 U363:-13.1|-9.45|
1850 U363:-13.48|-15.01|
10214 U363:-13.48|-18.66|
9318 U363:-13.48|-8.11|
5990 U363:-14|-18.66|
6948 U363:-15.01|-18.66|
2776 U363:-18.66|-11.85|
8520 U363:-18.66|-13.48|
4152 U363:-18.66|-14|
9060 U363:-18.66|-15.01|
3516 U363:-18.66|-18.66|
6526 U363:-18.66|-9.45|
9710 U363:-8.11|-10.03|
726 U363:-8.11|-14|
10646 U363:-9.45|-13.48|
11524 U364:*
9712 U364:-10.03|
2778 U364:-11.85|
8522 U364:-13.48|
728 U364:-14|
1852 U364:-15.01|
3518 U364:-18.66|
9320 U364:-8.11|
5376 U364:-9.45|
11526 U365:**
9714 U365:-10.03|-13.48|
2780 U365:-11.85|-15.01|
8524 U365:-13.48|-14|
10648 U365:-13.48|-18.66|
8864 U365:-13.48|-8.11|
730 U365:-14|-11.85|
4154 U365:-14|-13.1|
1854 U365:-15.01|-13.48|
4754 U365:-18.66|-13.48|
8018 U365:-18.66|-15.01|
3520 U365:-18.66|-18.66|
6950 U365:-18.66|-9.45|
9322 U365:-8.11|-9.45|
5378 U365:-9.45|-13.1|
11528 U366:*
732 U366:-11.85|
4156 U366:-13.1|
1856 U366:-13.48|
8526 U366:-14|
2782 U366:-15.01|
3522 U366:-18.66|
8866 U366:-8.11|
6952 U366:-9.45|
11530 U367:**
734 U367:-11.85|-13.1|
4158 U367:-13.1|-13.48|
9716 U367:-13.48|-13.1|
4756 U367:-13.48|-14|
1858 U367:-13.48|-8.11|
8528 U367:-14|-13.48|
2784 U367:-15.01|-13.48|
8020 U367:-15.01|-9.45|
10216 U367:-18.66|-14|
3524 U367:-18.66|-15.01|
5992 U367:-18.66|-18.66|
8868 U367:-8.11|-8.11|
9324 U367:-9.45|-14|
6954 U367:-9.45|-8.11|
11532 U368:*
736 U368:-13.1|
2786 U368:-13.48|
4758 U368:-14|
3526 U368:-15.01|
5994 U368:-18.66|
1860 U368:-8.11|
8022 U368:-9.45|
11534 U369:**
738 U369:-13.1|-8.11|
5380 U369:-13.48|-14|
2788 U369:-13.48|-8.11|
8530 U369:-13.48|-9.45|
9326 U369:-14|-8.11|
4760 U369:-14|-9.45|
3528 U369:-15.01|-9.45|
10650 U369:-18.66|-15.01|
5996 U369:-18.66|-9.45|
1862 U369:-8.11|-10.03|
6956 U369:-8.11|-13.1|
8024 U369:-9.45|-13.48|
10868 U36:*
2328 U36:A|
1230 U36:C|
9966 U36:G|
72 U36:T|
11536 U370:*
1864 U370:-10.03|
6958 U370:-13.1|
8026 U370:-13.48|
5382 U370:-14|
10652 U370:-15.01|
740 U370:-8.11|
3530 U370:-9.45|
11538 U371:**
1866 U371:-10.03|-11.08|
6960 U371:-13.1|-18.66|
8028 U371:-13.48|-18.66|
5384 U371:-14|-11.85|
7452 U371:-14|-13.48|
10654 U371:-15.01|-11.85|
9328 U371:-8.11|-11.08|
742 U371:-8.11|-14|
10218 U371:-8.11|-8.11|
2790 U371:-8.11|-9.45|
3532 U371:-9.45|-11.08|
5998 U371:-9.45|-13.1|
11540 U372:*
1868 U372:-11.08|
5386 U372:-11.85|
6000 U372:-13.1|
7454 U372:-13.48|
744 U372:-14|
6962 U372:-18.66|
10220 U372:-8.11|
2792 U372:-9.45|
11542 U373:**
1870 U373:-11.08|-14|
4762 U373:-11.08|-8.11|
5388 U373:-11.85|-15.01|
10656 U373:-11.85|-18.66|
8532 U373:-13.1|-14|
6002 U373:-13.1|-18.66|
7456 U373:-13.48|-14|
746 U373:-14|-9.45|
8030 U373:-18.66|-15.01|
6964 U373:-18.66|-18.66|
10222 U373:-8.11|-13.48|
4160 U373:-9.45|-13.1|
2794 U373:-9.45|-15.01|
11544 U374:*
4162 U374:-13.1|
10224 U374:-13.48|
1872 U374:-14|
2796 U374:-15.01|
6004 U374:-18.66|
4764 U374:-8.11|
748 U374:-9.45|
11546 U375:**
4164 U375:-13.1|-9.45|
10226 U375:-13.48|-14|
1874 U375:-14|-11.85|
7458 U375:-14|-18.66|
8534 U375:-14|-9.45|
2798 U375:-15.01|-11.85|
6006 U375:-18.66|-11.85|
10658 U375:-18.66|-13.1|
6966 U375:-18.66|-13.48|
4766 U375:-8.11|-10.03|
750 U375:-9.45|-13.48|
11548 U376:*
4768 U376:-10.03|
1876 U376:-11.85|
10660 U376:-13.1|
752 U376:-13.48|
10228 U376:-14|
7460 U376:-18.66|
4166 U376:-9.45|
11550 U377:**
4770 U377:-10.03|+|
1878 U377:-11.85|+|
10662 U377:-13.1|+|
754 U377:-13.48|+|
10230 U377:-14|+|
7462 U377:-18.66|+|
4168 U377:-9.45|+|
11552 U378:*
756 U378:+|
11554 U379:**
7464 U379:+|32.9|
4170 U379:+|36.1|
1880 U379:+|36.3|
4772 U379:+|37.3|
758 U379:+|37.8|
10870 U37:**
10388 U37:A|A|
3810 U37:A|C|
2330 U37:A|T|
4380 U37:C|C|
1232 U37:C|T|
9968 U37:G|A|
74 U37:T|G|
5636 U37:T|T|
11556 U380:**
10664 U380:+|31.5|
10232 U380:+|31.9|
7466 U380:+|35.1|
4774 U380:+|36.1|
760 U380:+|36.3|
4172 U380:+|37.3|
1882 U380:+|37.8|
11558 U381:*
7468 U381:32.9|
4174 U381:36.1|
1884 U381:36.3|
4776 U381:37.3|
762 U381:37.8|
11560 U382:**
7470 U382:32.9|32.9|
4176 U382:36.1|32.9|
10234 U382:36.3|31.9|
6528 U382:36.3|35.1|
1886 U382:36.3|37.3|
4778 U382:37.3|31.5|
8032 U382:37.3|31.9|
9718 U382:37.3|33.6|
9330 U382:37.3|35.1|
3534 U382:37.8|29.3|
764 U382:37.8|31.9|
5390 U382:37.8|35.1|
11562 U383:**
7472 U383:32.9|31.9|
4178 U383:36.1|31.5|
6530 U383:36.3|29.3|
1888 U383:36.3|31.9|
10236 U383:36.3|36.3|
8034 U383:37.3|29.3|
9332 U383:37.3|31.9|
4780 U383:37.3|32.9|
9720 U383:37.3|37.3|
2800 U383:37.8|29.3|
3536 U383:37.8|31.9|
6008 U383:37.8|35.1|
766 U383:37.8|37.3|
11564 U384:*
3538 U384:29.3|
4782 U384:31.5|
768 U384:31.9|
4180 U384:32.9|
9722 U384:33.6|
5392 U384:35.1|
1890 U384:37.3|
11566 U385:**
3540 U385:29.3|37.3|
6010 U385:29.3|37.8|
4784 U385:31.5|37.3|
770 U385:31.9|33.6|
7474 U385:32.9|32.9|
4182 U385:32.9|33.6|
9724 U385:33.6|31.9|
5394 U385:35.1|31.5|
9334 U385:35.1|31.9|
6532 U385:35.1|35.1|
1892 U385:37.3|31.9|
11568 U386:**
6012 U386:29.3|31.5|
3542 U386:29.3|33.6|
6968 U386:29.3|35.1|
4786 U386:31.5|33.6|
772 U386:31.9|31.9|
10238 U386:31.9|32.9|
8036 U386:31.9|35.1|
2802 U386:31.9|37.3|
10666 U386:31.9|37.8|
7476 U386:32.9|36.3|
4184 U386:32.9|37.3|
9726 U386:33.6|31.9|
9336 U386:35.1|33.6|
6534 U386:35.1|37.3|
5396 U386:35.1|37.8|
1894 U386:37.3|33.6|
11570 U387:*
5398 U387:31.5|
1896 U387:31.9|
7478 U387:32.9|
774 U387:33.6|
6536 U387:35.1|
3544 U387:37.3|
6014 U387:37.8|
11572 U388:**
5400 U388:31.5|37.3|
1898 U388:31.9|32.9|
9728 U388:31.9|37.3|
7480 U388:32.9|33.6|
776 U388:33.6|36.1|
2804 U388:33.6|37.3|
6538 U388:35.1|31.5|
8870 U388:37.3|31.5|
3546 U388:37.3|32.9|
8536 U388:37.3|33.6|
6016 U388:37.8|31.9|
11574 U389:**
5402 U389:31.5|31.9|
9338 U389:31.9|32.9|
1900 U389:31.9|36.1|
7482 U389:32.9|31.9|
10668 U389:33.6|29.3|
778 U389:33.6|32.9|
8038 U389:33.6|36.3|
6540 U389:35.1|32.9|
6970 U389:37.3|31.5|
8872 U389:37.3|36.1|
3548 U389:37.3|37.3|
6018 U389:37.8|37.3|
10872 U38:*
9970 U38:A|
3812 U38:C|
76 U38:G|
1234 U38:T|
11576 U390:*
6542 U390:31.5|
6020 U390:31.9|
1902 U390:32.9|
7484 U390:33.6|
780 U390:36.1|
2806 U390:37.3|
11578 U391:**
6544 U391:31.5|32.9|
8874 U391:31.5|36.3|
6022 U391:31.9|36.3|
1904 U391:32.9|31.5|
3550 U391:32.9|36.3|
7486 U391:33.6|36.1|
8538 U391:33.6|37.3|
782 U391:36.1|32.9|
2808 U391:37.3|29.3|
9730 U391:37.3|31.5|
4186 U391:37.3|31.9|
5404 U391:37.3|35.1|
11580 U392:**
8876 U392:31.5|32.9|
6546 U392:31.5|36.3|
6024 U392:31.9|35.1|
3552 U392:32.9|29.3|
4788 U392:32.9|31.9|
1906 U392:32.9|32.9|
7488 U392:33.6|36.3|
784 U392:36.1|31.5|
9732 U392:37.3|31.5|
10240 U392:37.3|31.9|
10670 U392:37.3|35.1|
2810 U392:37.3|36.3|
8040 U392:37.3|37.3|
11582 U393:*
2812 U393:29.3|
1908 U393:31.5|
4188 U393:31.9|
786 U393:32.9|
5406 U393:35.1|
7490 U393:36.1|
3554 U393:36.3|
8540 U393:37.3|
11584 U394:**
2814 U394:29.3|35.1|
9734 U394:31.5|35.1|
1910 U394:31.5|37.8|
10672 U394:31.9|31.5|
8042 U394:31.9|32.9|
4190 U394:31.9|36.3|
788 U394:32.9|36.3|
6548 U394:32.9|37.3|
9916 U394:35.1|29.3|
10242 U394:35.1|31.5|
5408 U394:35.1|35.1|
7492 U394:36.1|36.3|
3556 U394:36.3|29.3|
4790 U394:36.3|31.5|
8878 U394:36.3|31.9|
8542 U394:37.3|31.5|
11586 U395:**
2816 U395:29.3|29.3|
1912 U395:31.5|36.3|
8044 U395:31.9|29.3|
4192 U395:31.9|31.5|
10674 U395:31.9|35.1|
6550 U395:32.9|31.5|
790 U395:32.9|37.8|
9918 U395:35.1|29.3|
5410 U395:35.1|31.5|
10244 U395:35.1|35.1|
7494 U395:36.1|29.3|
8880 U395:36.3|32.9|
3558 U395:36.3|35.1|
4792 U395:36.3|36.3|
6972 U395:36.3|37.3|
8544 U395:37.3|31.9|
11588 U396:*
3560 U396:29.3|
4794 U396:31.5|
8882 U396:31.9|
8046 U396:32.9|
2818 U396:35.1|
792 U396:36.3|
6552 U396:37.3|
1914 U396:37.8|
11590 U397:**
9062 U397:29.3|35.1|
3562 U397:29.3|37.8|
4796 U397:31.5|31.9|
8546 U397:31.5|36.1|
6026 U397:31.5|37.3|
8884 U397:31.9|35.1|
8048 U397:32.9|36.3|
2820 U397:35.1|35.1|
794 U397:36.3|29.3|
4194 U397:36.3|35.1|
6554 U397:37.3|35.1|
1916 U397:37.8|31.9|
11592 U398:**
9064 U398:29.3|29.3|
9340 U398:29.3|32.9|
3564 U398:29.3|35.1|
4798 U398:31.5|35.1|
8548 U398:31.5|36.3|
8886 U398:31.9|36.3|
8050 U398:32.9|35.1|
9736 U398:35.1|36.1|
5412 U398:35.1|37.3|
2822 U398:35.1|37.8|
796 U398:36.3|31.9|
7496 U398:36.3|37.8|
6556 U398:37.3|37.3|
1918 U398:37.8|29.3|
11594 U399:*
798 U399:29.3|
1920 U399:31.9|
2824 U399:35.1|
8550 U399:36.1|
8052 U399:36.3|
6028 U399:37.3|
3566 U399:37.8|
10874 U39:**
10390 U39:A|C|
9972 U39:A|G|
3814 U39:C|A|
4382 U39:C|G|
78 U39:G|A|
1236 U39:T|A|
6722 U39:T|C|
8240 U39:T|G|
7138 U39:T|T|
10802 U3:*
6 U3:A|
1176 U3:C|
3790 U3:G|
11596 U400:**
800 U400:29.3|36.3|
1922 U400:31.9|32.9|
4800 U400:31.9|35.1|
10246 U400:31.9|37.3|
6558 U400:35.1|29.3|
5414 U400:35.1|31.9|
2826 U400:35.1|35.1|
9738 U400:35.1|36.3|
9066 U400:35.1|37.8|
8552 U400:36.1|31.5|
8054 U400:36.3|29.3|
6030 U400:37.3|31.5|
6974 U400:37.3|35.1|
3568 U400:37.8|35.1|
11598 U401:**
802 U401:29.3|32.9|
4802 U401:31.9|35.1|
1924 U401:31.9|36.3|
5416 U401:35.1|31.5|
9740 U401:35.1|32.9|
2828 U401:35.1|35.1|
9342 U401:35.1|36.3|
9920 U401:35.1|37.8|
8554 U401:36.1|35.1|
8056 U401:36.3|37.8|
6976 U401:37.3|29.3|
6032 U401:37.3|31.9|
10676 U401:37.3|37.3|
3570 U401:37.8|35.1|
11600 U402:*
6560 U402:29.3|
6034 U402:31.5|
5418 U402:31.9|
1926 U402:32.9|
2830 U402:35.1|
804 U402:36.3|
10248 U402:37.3|
9068 U402:37.8|
11602 U403:**
6562 U403:29.3|35.1|
8058 U403:29.3|37.8|
6036 U403:31.5|31.9|
8556 U403:31.5|35.1|
10678 U403:31.5|37.3|
5420 U403:31.9|31.5|
1928 U403:32.9|36.3|
6978 U403:35.1|29.3|
2832 U403:35.1|35.1|
9344 U403:35.1|36.3|
9922 U403:35.1|37.8|
806 U403:36.3|32.9|
10250 U403:37.3|36.3|
9070 U403:37.8|35.1|
11604 U404:*
6980 U404:29.3|
5422 U404:31.5|
6038 U404:31.9|
808 U404:32.9|
2834 U404:35.1|
1930 U404:36.3|
10680 U404:37.3|
8060 U404:37.8|
11606 U405:**
6982 U405:29.3|35.1|
5424 U405:31.5|37.3|
6040 U405:31.9|35.1|
810 U405:32.9|31.9|
9742 U405:32.9|36.1|
9072 U405:35.1|29.3|
4196 U405:35.1|31.9|
3572 U405:35.1|35.1|
8558 U405:35.1|36.3|
6564 U405:35.1|37.3|
2836 U405:35.1|37.8|
1932 U405:36.3|29.3|
9346 U405:36.3|32.9|
10252 U405:36.3|35.1|
10682 U405:37.3|36.3|
8062 U405:37.8|35.1|
11608 U406:*
1934 U406:29.3|
812 U406:31.9|
9348 U406:32.9|
3574 U406:35.1|
9744 U406:36.1|
8560 U406:36.3|
5426 U406:37.3|
2838 U406:37.8|
11610 U407:**
1936 U407:29.3|36.3|
4198 U407:31.9|31.5|
814 U407:31.9|37.8|
9350 U407:32.9|37.3|
8064 U407:35.1|29.3|
3576 U407:35.1|35.1|
4804 U407:35.1|36.3|
6984 U407:35.1|37.3|
9746 U407:36.1|36.3|
8562 U407:36.3|31.9|
8888 U407:36.3|32.9|
10684 U407:36.3|35.1|
5428 U407:37.3|31.5|
2840 U407:37.8|29.3|
11612 U408:*
2842 U408:29.3|
4200 U408:31.5|
8564 U408:31.9|
8890 U408:32.9|
3578 U408:35.1|
1938 U408:36.3|
6986 U408:37.3|
816 U408:37.8|
11614 U409:**
2844 U409:29.3|36.3|
8066 U409:29.3|37.3|
4202 U409:31.5|36.3|
8566 U409:31.9|36.3|
8892 U409:32.9|32.9|
3580 U409:35.1|29.3|
10254 U409:35.1|31.9|
6042 U409:35.1|35.1|
9748 U409:36.3|31.5|
4806 U409:36.3|31.9|
1940 U409:36.3|32.9|
9352 U409:37.3|31.9|
6988 U409:37.3|32.9|
818 U409:37.8|31.5|
10876 U40:*
80 U40:A|
6724 U40:C|
4384 U40:G|
7140 U40:T|
11616 U410:*
3582 U410:29.3|
820 U410:31.5|
4808 U410:31.9|
1942 U410:32.9|
6044 U410:35.1|
2846 U410:36.3|
8068 U410:37.3|
11618 U411:**
3584 U411:29.3|37.3|
822 U411:31.5|32.9|
9354 U411:31.9|32.9|
4810 U411:31.9|37.3|
6990 U411:32.9|31.5|
1944 U411:32.9|36.1|
10686 U411:35.1|29.3|
6046 U411:35.1|37.3|
5430 U411:36.3|31.9|
2848 U411:36.3|32.9|
8568 U411:36.3|37.3|
8070 U411:37.3|36.3|
11620 U412:*
10688 U412:29.3|
6992 U412:31.5|
5432 U412:31.9|
824 U412:32.9|
1946 U412:36.1|
8072 U412:36.3|
3586 U412:37.3|
11622 U413:**
10690 U413:29.3|37.8|
6994 U413:31.5|35.1|
7498 U413:31.9|36.3|
5434 U413:31.9|37.8|
826 U413:32.9|31.9|
10256 U413:32.9|32.9|
9356 U413:32.9|33.6|
2850 U413:32.9|37.3|
1948 U413:36.1|33.6|
8074 U413:36.3|35.1|
6048 U413:37.3|31.5|
3588 U413:37.3|33.6|
11624 U414:*
6050 U414:31.5|
828 U414:31.9|
10258 U414:32.9|
1950 U414:33.6|
6996 U414:35.1|
7500 U414:36.3|
2852 U414:37.3|
5436 U414:37.8|
11626 U415:**
8570 U415:31.5|31.9|
6052 U415:31.5|35.1|
830 U415:31.9|37.3|
10260 U415:32.9|36.3|
1952 U415:33.6|31.9|
4812 U415:33.6|32.9|
8076 U415:35.1|29.3|
6998 U415:35.1|35.1|
7502 U415:36.3|31.9|
2854 U415:37.3|29.3|
4204 U415:37.3|31.5|
5438 U415:37.8|29.3|
10692 U415:37.8|35.1|
11628 U416:*
2856 U416:29.3|
4206 U416:31.5|
1954 U416:31.9|
4814 U416:32.9|
6054 U416:35.1|
10262 U416:36.3|
832 U416:37.3|
11630 U417:**
2858 U417:29.3|37.8|
4208 U417:31.5|37.3|
7504 U417:31.9|35.1|
8572 U417:31.9|37.3|
1956 U417:31.9|37.8|
4816 U417:32.9|36.1|
10694 U417:35.1|31.5|
7000 U417:35.1|36.3|
6056 U417:35.1|37.8|
10264 U417:36.3|31.9|
834 U417:37.3|36.3|
11632 U418:*
10696 U418:31.5|
10266 U418:31.9|
7506 U418:35.1|
4818 U418:36.1|
836 U418:36.3|
4210 U418:37.3|
1958 U418:37.8|
11634 U419:**
10698 U419:31.5|+|
10268 U419:31.9|+|
7508 U419:35.1|+|
4820 U419:36.1|+|
838 U419:36.3|+|
4212 U419:37.3|+|
1960 U419:37.8|+|
10878 U41:**
82 U41:A|+|
6726 U41:C|+|
4386 U41:G|+|
7142 U41:T|+|
11636 U420:*
840 U420:+|
11638 U421:**
842 U421:+|-0.9|
1962 U421:+|-1.5|
4822 U421:+|-1.7|
7510 U421:+|-2.1|
4214 U421:+|-2.8|
11640 U422:**
1964 U422:+|-0.9|
7512 U422:+|-1.2|
844 U422:+|-1.5|
4216 U422:+|-1.7|
4824 U422:+|-2.8|
11642 U423:*
846 U423:-0.9|
1966 U423:-1.5|
4826 U423:-1.7|
7514 U423:-2.1|
4218 U423:-2.8|
11644 U424:**
3590 U424:-0.9|-0.9|
5440 U424:-0.9|-1.2|
848 U424:-0.9|-1.5|
6566 U424:-1.5|-1.2|
10270 U424:-1.5|-1.5|
1968 U424:-1.5|-1.7|
9358 U424:-1.7|-1.2|
4828 U424:-1.7|-1.5|
9750 U424:-1.7|-2.3|
7516 U424:-2.1|-2.1|
4220 U424:-2.8|-2.1|
11646 U425:**
2860 U425:-0.9|-0.9|
6058 U425:-0.9|-1.2|
3592 U425:-0.9|-1.5|
850 U425:-0.9|-1.7|
6568 U425:-1.5|-0.9|
1970 U425:-1.5|-1.5|
8078 U425:-1.7|-0.9|
9360 U425:-1.7|-1.5|
9752 U425:-1.7|-1.7|
4830 U425:-1.7|-2.1|
7518 U425:-2.1|-1.5|
4222 U425:-2.8|-1.5|
11648 U426:*
3594 U426:-0.9|
5442 U426:-1.2|
852 U426:-1.5|
1972 U426:-1.7|
4224 U426:-2.1|
9754 U426:-2.3|
11650 U427:**
6060 U427:-0.9|-0.9|
3596 U427:-0.9|-1.7|
6570 U427:-1.2|-1.2|
5444 U427:-1.2|-1.5|
4832 U427:-1.5|-1.7|
854 U427:-1.5|-2.3|
1974 U427:-1.7|-1.5|
7520 U427:-2.1|-2.1|
4226 U427:-2.1|-2.3|
9756 U427:-2.3|-1.5|
11652 U428:**
7002 U428:-0.9|-1.2|
6062 U428:-0.9|-1.5|
3598 U428:-0.9|-2.3|
5446 U428:-1.2|-0.9|
6572 U428:-1.2|-1.7|
9362 U428:-1.2|-2.3|
10700 U428:-1.5|-0.9|
8080 U428:-1.5|-1.2|
856 U428:-1.5|-1.5|
2862 U428:-1.5|-1.7|
10272 U428:-1.5|-2.1|
4834 U428:-1.5|-2.3|
1976 U428:-1.7|-2.3|
7522 U428:-2.1|-1.5|
4228 U428:-2.1|-1.7|
9758 U428:-2.3|-1.5|
11654 U429:*
6064 U429:-0.9|
6574 U429:-1.2|
1978 U429:-1.5|
3600 U429:-1.7|
7524 U429:-2.1|
858 U429:-2.3|
10880 U42:*
84 U42:+|
11656 U430:**
6066 U430:-0.9|-1.5|
6576 U430:-1.2|-1.5|
5448 U430:-1.5|-1.7|
1980 U430:-1.5|-2.1|
8894 U430:-1.7|-1.5|
3602 U430:-1.7|-2.1|
8574 U430:-1.7|-2.3|
7526 U430:-2.1|-2.3|
2864 U430:-2.3|-1.7|
860 U430:-2.3|-2.8|
11658 U431:**
6068 U431:-0.9|-1.7|
6578 U431:-1.2|-2.1|
5450 U431:-1.5|-1.5|
9364 U431:-1.5|-2.1|
1982 U431:-1.5|-2.8|
7004 U431:-1.7|-1.5|
3604 U431:-1.7|-1.7|
8896 U431:-1.7|-2.8|
7528 U431:-2.1|-1.5|
10702 U431:-2.3|-0.9|
8082 U431:-2.3|-1.5|
862 U431:-2.3|-2.1|
11660 U432:*
6070 U432:-1.5|
2866 U432:-1.7|
1984 U432:-2.1|
7530 U432:-2.3|
864 U432:-2.8|
11662 U433:**
6072 U433:-1.5|-1.5|
6580 U433:-1.5|-2.1|
2868 U433:-1.7|-0.9|
5452 U433:-1.7|-1.2|
4230 U433:-1.7|-1.5|
1986 U433:-2.1|-1.5|
8576 U433:-2.3|-1.7|
7532 U433:-2.3|-2.8|
866 U433:-2.8|-2.1|
11664 U434:**
6074 U434:-1.5|-1.2|
6582 U434:-1.5|-1.5|
8898 U434:-1.5|-2.1|
10704 U434:-1.7|-1.2|
2870 U434:-1.7|-1.5|
8084 U434:-1.7|-1.7|
3606 U434:-2.1|-0.9|
4836 U434:-2.1|-1.5|
1988 U434:-2.1|-2.1|
7534 U434:-2.3|-1.5|
868 U434:-2.8|-1.5|
11666 U435:*
2872 U435:-0.9|
5454 U435:-1.2|
1990 U435:-1.5|
8578 U435:-1.7|
870 U435:-2.1|
7536 U435:-2.8|
11668 U436:**
2874 U436:-0.9|-1.2|
9924 U436:-1.2|-0.9|
5456 U436:-1.2|-1.2|
10274 U436:-1.2|-1.5|
1992 U436:-1.5|-0.9|
9760 U436:-1.5|-1.2|
4232 U436:-1.5|-1.5|
8086 U436:-1.5|-2.1|
8580 U436:-1.7|-1.5|
872 U436:-2.1|-1.5|
6584 U436:-2.1|-1.7|
7538 U436:-2.8|-1.5|
11670 U437:**
2876 U437:-0.9|-0.9|
9926 U437:-1.2|-0.9|
10276 U437:-1.2|-1.2|
5458 U437:-1.2|-1.5|
8088 U437:-1.5|-0.9|
3608 U437:-1.5|-1.2|
1994 U437:-1.5|-1.5|
7006 U437:-1.5|-1.7|
8900 U437:-1.5|-2.1|
8582 U437:-1.7|-1.5|
874 U437:-2.1|-0.9|
6586 U437:-2.1|-1.5|
7540 U437:-2.8|-0.9|
11672 U438:*
1996 U438:-0.9|
2878 U438:-1.2|
876 U438:-1.5|
6588 U438:-1.7|
8090 U438:-2.1|
11674 U439:**
3610 U439:-0.9|-0.9|
9074 U439:-0.9|-1.2|
1998 U439:-0.9|-1.5|
2880 U439:-1.2|-1.2|
878 U439:-1.5|-0.9|
4234 U439:-1.5|-1.2|
4838 U439:-1.5|-1.5|
6076 U439:-1.5|-1.7|
8584 U439:-1.5|-2.8|
6590 U439:-1.7|-1.2|
8092 U439:-2.1|-1.5|
10882 U43:**
7144 U43:+|0.19|
3816 U43:+|0.52|
86 U43:+|0.73|
1238 U43:+|0.98|
4388 U43:+|1.04|
11676 U440:**
2000 U440:-0.9|-0.9|
3612 U440:-0.9|-1.2|
9366 U440:-0.9|-2.1|
2882 U440:-1.2|-0.9|
5460 U440:-1.2|-1.7|
9762 U440:-1.2|-2.8|
7542 U440:-1.5|-0.9|
4840 U440:-1.5|-1.2|
880 U440:-1.5|-1.5|
6592 U440:-1.7|-1.7|
8094 U440:-2.1|-1.2|
11678 U441:*
882 U441:-0.9|
2884 U441:-1.2|
2002 U441:-1.5|
6078 U441:-1.7|
8586 U441:-2.8|
11680 U442:**
3614 U442:-0.9|-1.2|
884 U442:-0.9|-1.5|
6594 U442:-1.2|-0.9|
2886 U442:-1.2|-1.2|
5462 U442:-1.2|-1.5|
8096 U442:-1.5|-0.9|
4842 U442:-1.5|-1.2|
10278 U442:-1.5|-1.7|
2004 U442:-1.5|-2.1|
7008 U442:-1.7|-1.2|
6080 U442:-1.7|-1.5|
8588 U442:-2.8|-1.5|
11682 U443:**
3616 U443:-0.9|-1.2|
886 U443:-0.9|-2.1|
9928 U443:-1.2|-0.9|
2888 U443:-1.2|-1.2|
5464 U443:-1.2|-1.5|
9764 U443:-1.2|-2.1|
8098 U443:-1.5|-0.9|
4844 U443:-1.5|-1.2|
2006 U443:-1.5|-1.5|
7010 U443:-1.7|-0.9|
6082 U443:-1.7|-1.5|
10706 U443:-1.7|-1.7|
8590 U443:-2.8|-1.2|
11684 U444:*
6596 U444:-0.9|
2890 U444:-1.2|
888 U444:-1.5|
10280 U444:-1.7|
2008 U444:-2.1|
11686 U445:**
8100 U445:-0.9|-0.9|
6598 U445:-0.9|-1.2|
7012 U445:-1.2|-0.9|
2892 U445:-1.2|-1.2|
9368 U445:-1.2|-1.5|
8592 U445:-1.5|-1.2|
5466 U445:-1.5|-1.5|
10708 U445:-1.5|-1.7|
890 U445:-1.5|-2.1|
10282 U445:-1.7|-1.5|
2010 U445:-2.1|-1.5|
11688 U446:*
7014 U446:-0.9|
2894 U446:-1.2|
2012 U446:-1.5|
10710 U446:-1.7|
892 U446:-2.1|
11690 U447:**
7016 U447:-0.9|-1.2|
2896 U447:-1.2|-0.9|
3618 U447:-1.2|-1.2|
4236 U447:-1.2|-1.5|
6600 U447:-1.2|-1.7|
2014 U447:-1.5|-0.9|
6084 U447:-1.5|-1.2|
5468 U447:-1.5|-1.7|
9370 U447:-1.5|-2.1|
10712 U447:-1.7|-1.5|
894 U447:-2.1|-1.5|
9766 U447:-2.1|-2.8|
11692 U448:*
2016 U448:-0.9|
3620 U448:-1.2|
896 U448:-1.5|
5470 U448:-1.7|
9372 U448:-2.1|
9768 U448:-2.8|
11694 U449:**
2898 U449:-0.9|-0.9|
2018 U449:-0.9|-1.5|
8102 U449:-1.2|-0.9|
3622 U449:-1.2|-1.2|
4846 U449:-1.2|-1.5|
7018 U449:-1.2|-1.7|
898 U449:-1.5|-0.9|
10714 U449:-1.5|-1.2|
4238 U449:-1.5|-1.5|
8902 U449:-1.5|-2.1|
5472 U449:-1.7|-1.5|
9374 U449:-2.1|-1.7|
9770 U449:-2.8|-1.5|
10884 U44:**
10392 U44:+|0.13|
9974 U44:+|0.33|
4390 U44:+|0.52|
1240 U44:+|0.73|
7146 U44:+|0.97|
88 U44:+|0.98|
3818 U44:+|1.04|
11696 U450:*
900 U450:-0.9|
3624 U450:-1.2|
2020 U450:-1.5|
7020 U450:-1.7|
8904 U450:-2.1|
11698 U451:**
902 U451:-0.9|-1.5|
8104 U451:-0.9|-1.7|
3626 U451:-1.2|-0.9|
6086 U451:-1.2|-1.2|
10284 U451:-1.2|-1.5|
4240 U451:-1.5|-1.5|
2022 U451:-1.5|-2.1|
9376 U451:-1.7|-1.5|
7022 U451:-1.7|-2.1|
8906 U451:-2.1|-2.1|
11700 U452:*
3628 U452:-0.9|
6088 U452:-1.2|
904 U452:-1.5|
8106 U452:-1.7|
2024 U452:-2.1|
11702 U453:**
3630 U453:-0.9|-1.7|
10716 U453:-1.2|-0.9|
6090 U453:-1.2|-1.7|
5474 U453:-1.5|-1.5|
4848 U453:-1.5|-1.7|
906 U453:-1.5|-2.1|
8108 U453:-1.7|-1.5|
7024 U453:-2.1|-1.5|
2026 U453:-2.1|-2.8|
11704 U454:*
10718 U454:-0.9|
5476 U454:-1.5|
3632 U454:-1.7|
908 U454:-2.1|
2028 U454:-2.8|
11706 U455:**
10720 U455:-0.9|-0.9|
5478 U455:-1.5|-0.9|
7026 U455:-1.5|-1.2|
7544 U455:-1.5|-1.5|
6092 U455:-1.7|-1.5|
3634 U455:-1.7|-2.3|
910 U455:-2.1|-1.5|
2900 U455:-2.1|-1.7|
10286 U455:-2.1|-2.1|
9378 U455:-2.1|-2.3|
2030 U455:-2.8|-2.3|
11708 U456:*
5480 U456:-0.9|
7028 U456:-1.2|
912 U456:-1.5|
2902 U456:-1.7|
10288 U456:-2.1|
2032 U456:-2.3|
11710 U457:**
5482 U457:-0.9|-0.9|
10722 U457:-0.9|-1.2|
8110 U457:-1.2|-0.9|
7030 U457:-1.2|-1.2|
6094 U457:-1.5|-1.2|
7546 U457:-1.5|-1.5|
914 U457:-1.5|-1.7|
2904 U457:-1.7|-0.9|
4242 U457:-1.7|-1.5|
10290 U457:-2.1|-1.5|
2034 U457:-2.3|-1.5|
4850 U457:-2.3|-2.1|
11712 U458:*
2906 U458:-0.9|
6096 U458:-1.2|
2036 U458:-1.5|
916 U458:-1.7|
4852 U458:-2.1|
11714 U459:**
2908 U459:-0.9|-0.9|
6098 U459:-1.2|-0.9|
7032 U459:-1.2|-1.5|
2038 U459:-1.5|-0.9|
7548 U459:-1.5|-1.2|
10292 U459:-1.5|-1.5|
4244 U459:-1.5|-1.7|
918 U459:-1.7|-1.5|
4854 U459:-2.1|-2.8|
10886 U45:*
7148 U45:0.19|
3820 U45:0.52|
90 U45:0.73|
1242 U45:0.98|
4392 U45:1.04|
11716 U460:*
2040 U460:-0.9|
7550 U460:-1.2|
920 U460:-1.5|
4246 U460:-1.7|
4856 U460:-2.8|
11718 U461:**
2042 U461:-0.9|+|
7552 U461:-1.2|+|
922 U461:-1.5|+|
4248 U461:-1.7|+|
4858 U461:-2.8|+|
11720 U462:*
924 U462:+|
11722 U463:**
926 U463:+|-3.82|
4860 U463:+|-6.57|
7554 U463:+|-8.26|
4250 U463:+|-9.61|
2044 U463:+|-9.81|
11724 U464:**
10724 U464:+|-10.51|
2046 U464:+|-3.82|
7556 U464:+|-5.37|
4252 U464:+|-6.57|
10294 U464:+|-6.78|
4862 U464:+|-9.61|
928 U464:+|-9.81|
11726 U465:*
930 U465:-3.82|
4864 U465:-6.57|
7558 U465:-8.26|
4254 U465:-9.61|
2048 U465:-9.81|
11728 U466:**
5484 U466:-3.82|-5.37|
3636 U466:-3.82|-6.57|
932 U466:-3.82|-6.78|
4866 U466:-6.57|-10.51|
9772 U466:-6.57|-14.59|
9380 U466:-6.57|-5.37|
8112 U466:-6.57|-6.78|
7560 U466:-8.26|-8.26|
4256 U466:-9.61|-8.26|
6602 U466:-9.81|-5.37|
2050 U466:-9.81|-6.57|
10296 U466:-9.81|-6.78|
11730 U467:**
6100 U467:-3.82|-5.37|
934 U467:-3.82|-6.57|
3638 U467:-3.82|-6.78|
8114 U467:-6.57|-6.57|
9382 U467:-6.57|-6.78|
4868 U467:-6.57|-8.26|
7562 U467:-8.26|-6.78|
4258 U467:-9.61|-10.51|
6604 U467:-9.81|-6.57|
2052 U467:-9.81|-6.78|
10298 U467:-9.81|-9.81|
11732 U468:*
4870 U468:-10.51|
9774 U468:-14.59|
5486 U468:-5.37|
2054 U468:-6.57|
936 U468:-6.78|
4260 U468:-8.26|
11734 U469:**
4872 U469:-10.51|-6.57|
9776 U469:-14.59|-6.78|
5488 U469:-5.37|-10.51|
6606 U469:-5.37|-5.37|
9384 U469:-5.37|-6.78|
6102 U469:-6.57|-3.82|
3640 U469:-6.57|-6.57|
2056 U469:-6.57|-6.78|
938 U469:-6.78|-14.59|
4262 U469:-8.26|-14.59|
7564 U469:-8.26|-8.26|
10888 U46:**
7150 U46:0.19|0.19|
3822 U46:0.52|0.19|
92 U46:0.73|0.33|
3110 U46:0.73|0.58|
5012 U46:0.73|0.97|
9976 U46:0.98|0.33|
6254 U46:0.98|0.97|
1244 U46:0.98|1.04|
4394 U46:1.04|0.13|
7700 U46:1.04|0.33|
9474 U46:1.04|0.73|
9106 U46:1.04|0.97|
11736 U470:**
4874 U470:-10.51|-14.59|
9778 U470:-14.59|-6.78|
9386 U470:-5.37|-14.59|
5490 U470:-5.37|-3.82|
6608 U470:-5.37|-6.57|
6104 U470:-6.57|-10.51|
2058 U470:-6.57|-14.59|
7034 U470:-6.57|-5.37|
10726 U470:-6.78|-3.82|
8116 U470:-6.78|-5.37|
2910 U470:-6.78|-6.57|
940 U470:-6.78|-6.78|
10300 U470:-6.78|-8.26|
4264 U470:-8.26|-6.57|
7566 U470:-8.26|-9.81|
11738 U471:*
5492 U471:-10.51|
942 U471:-14.59|
6106 U471:-3.82|
6610 U471:-5.37|
3642 U471:-6.57|
2060 U471:-6.78|
7568 U471:-8.26|
11740 U472:**
5494 U472:-10.51|-6.57|
2912 U472:-14.59|-6.57|
944 U472:-14.59|-9.61|
6108 U472:-3.82|-6.78|
6612 U472:-5.37|-10.51|
8908 U472:-6.57|-10.51|
8594 U472:-6.57|-14.59|
3644 U472:-6.57|-8.26|
9780 U472:-6.78|-6.57|
2062 U472:-6.78|-8.26|
7570 U472:-8.26|-14.59|
11742 U473:**
5496 U473:-10.51|-6.78|
10728 U473:-14.59|-6.57|
946 U473:-14.59|-8.26|
8118 U473:-14.59|-9.81|
6110 U473:-3.82|-6.57|
6614 U473:-5.37|-8.26|
7036 U473:-6.57|-10.51|
3646 U473:-6.57|-6.57|
8910 U473:-6.57|-9.61|
9388 U473:-6.78|-8.26|
2064 U473:-6.78|-9.61|
7572 U473:-8.26|-6.78|
11744 U474:*
6616 U474:-10.51|
7574 U474:-14.59|
2914 U474:-6.57|
6112 U474:-6.78|
2066 U474:-8.26|
948 U474:-9.61|
11746 U475:**
6618 U475:-10.51|-8.26|
8912 U475:-10.51|-9.81|
8596 U475:-14.59|-6.57|
7576 U475:-14.59|-9.61|
9782 U475:-6.57|-10.51|
5498 U475:-6.57|-5.37|
2916 U475:-6.57|-6.57|
4266 U475:-6.57|-6.78|
6114 U475:-6.78|-9.81|
2068 U475:-8.26|-10.51|
3648 U475:-8.26|-9.81|
950 U475:-9.61|-8.26|
11748 U476:**
8914 U476:-10.51|-8.26|
6620 U476:-10.51|-9.81|
7578 U476:-14.59|-9.81|
9784 U476:-6.57|-10.51|
10730 U476:-6.57|-5.37|
8120 U476:-6.57|-6.57|
10302 U476:-6.57|-6.78|
2918 U476:-6.57|-9.81|
6116 U476:-6.78|-5.37|
3650 U476:-8.26|-6.57|
4876 U476:-8.26|-6.78|
2070 U476:-8.26|-8.26|
952 U476:-9.61|-10.51|
11750 U477:*
2072 U477:-10.51|
5500 U477:-5.37|
2920 U477:-6.57|
4268 U477:-6.78|
954 U477:-8.26|
7580 U477:-9.61|
3652 U477:-9.81|
11752 U478:**
2074 U478:-10.51|-3.82|
9786 U478:-10.51|-5.37|
10304 U478:-5.37|-10.51|
5502 U478:-5.37|-5.37|
9930 U478:-5.37|-6.57|
8598 U478:-6.57|-10.51|
2922 U478:-6.57|-5.37|
10732 U478:-6.78|-10.51|
8122 U478:-6.78|-8.26|
4270 U478:-6.78|-9.81|
6622 U478:-8.26|-6.57|
956 U478:-8.26|-9.81|
7582 U478:-9.61|-9.81|
4878 U478:-9.81|-10.51|
3654 U478:-9.81|-6.57|
8916 U478:-9.81|-6.78|
11754 U479:**
2076 U479:-10.51|-9.81|
5504 U479:-5.37|-10.51|
10306 U479:-5.37|-5.37|
9932 U479:-5.37|-6.57|
2924 U479:-6.57|-6.57|
8600 U479:-6.57|-6.78|
4272 U479:-6.78|-10.51|
10734 U479:-6.78|-5.37|
8124 U479:-6.78|-6.57|
6624 U479:-8.26|-10.51|
958 U479:-8.26|-3.82|
7584 U479:-9.61|-6.57|
3656 U479:-9.81|-5.37|
7038 U479:-9.81|-6.57|
8918 U479:-9.81|-8.26|
4880 U479:-9.81|-9.81|
10890 U47:**
7152 U47:0.19|0.33|
3824 U47:0.52|0.13|
3112 U47:0.73|0.33|
2332 U47:0.73|0.58|
5638 U47:0.73|0.97|
94 U47:0.73|1.04|
1246 U47:0.98|0.33|
6256 U47:0.98|0.58|
9978 U47:0.98|0.98|
4396 U47:1.04|0.19|
9108 U47:1.04|0.33|
7702 U47:1.04|0.58|
9476 U47:1.04|1.04|
11756 U480:*
4882 U480:-10.51|
2078 U480:-3.82|
2926 U480:-5.37|
3658 U480:-6.57|
8920 U480:-6.78|
8126 U480:-8.26|
960 U480:-9.81|
11758 U481:**
6118 U481:-10.51|-6.57|
4884 U481:-10.51|-6.78|
8602 U481:-10.51|-9.61|
2080 U481:-3.82|-6.78|
2928 U481:-5.37|-5.37|
3660 U481:-6.57|-3.82|
6626 U481:-6.57|-5.37|
8922 U481:-6.78|-5.37|
8128 U481:-8.26|-9.81|
4274 U481:-9.81|-5.37|
962 U481:-9.81|-6.57|
11760 U482:**
4886 U482:-10.51|-5.37|
8604 U482:-10.51|-9.81|
2082 U482:-3.82|-6.57|
2930 U482:-5.37|-3.82|
5506 U482:-5.37|-6.57|
9788 U482:-5.37|-9.61|
3662 U482:-6.57|-5.37|
6628 U482:-6.57|-6.57|
9390 U482:-6.57|-8.26|
8924 U482:-6.78|-9.81|
8130 U482:-8.26|-5.37|
7586 U482:-9.81|-3.82|
964 U482:-9.81|-6.78|
11762 U483:*
3664 U483:-3.82|
2932 U483:-5.37|
966 U483:-6.57|
2084 U483:-6.78|
8606 U483:-9.61|
8132 U483:-9.81|
11764 U484:**
3666 U484:-3.82|-5.37|
9076 U484:-5.37|-3.82|
2934 U484:-5.37|-5.37|
6630 U484:-5.37|-6.57|
5508 U484:-5.37|-6.78|
9790 U484:-5.37|-9.81|
6120 U484:-6.57|-10.51|
7040 U484:-6.57|-5.37|
968 U484:-6.57|-9.81|
4888 U484:-6.78|-5.37|
10308 U484:-6.78|-6.57|
2086 U484:-6.78|-8.26|
8608 U484:-9.61|-10.51|
8134 U484:-9.81|-6.57|
11766 U485:**
3668 U485:-3.82|-5.37|
5510 U485:-5.37|-10.51|
9934 U485:-5.37|-3.82|
2936 U485:-5.37|-5.37|
9792 U485:-5.37|-8.26|
9392 U485:-5.37|-9.81|
7042 U485:-6.57|-6.57|
6122 U485:-6.57|-6.78|
970 U485:-6.57|-8.26|
4890 U485:-6.78|-5.37|
2088 U485:-6.78|-9.81|
8610 U485:-9.61|-5.37|
8136 U485:-9.81|-3.82|
11768 U486:*
6124 U486:-10.51|
9078 U486:-3.82|
2938 U486:-5.37|
6632 U486:-6.57|
5512 U486:-6.78|
2090 U486:-8.26|
972 U486:-9.81|
11770 U487:**
8612 U487:-10.51|-5.37|
10736 U487:-10.51|-6.57|
6126 U487:-10.51|-6.78|
9080 U487:-3.82|-5.37|
9936 U487:-5.37|-3.82|
2940 U487:-5.37|-5.37|
7044 U487:-5.37|-6.57|
9394 U487:-5.37|-9.81|
8138 U487:-6.57|-3.82|
6634 U487:-6.57|-5.37|
10310 U487:-6.57|-9.81|
5514 U487:-6.78|-10.51|
2092 U487:-8.26|-9.81|
974 U487:-9.81|-8.26|
11772 U488:*
5516 U488:-10.51|
8140 U488:-3.82|
2942 U488:-5.37|
7046 U488:-6.57|
6128 U488:-6.78|
976 U488:-8.26|
2094 U488:-9.81|
11774 U489:**
5518 U489:-10.51|-6.57|
8142 U489:-3.82|-5.37|
2944 U489:-5.37|-3.82|
3670 U489:-5.37|-5.37|
6636 U489:-5.37|-6.57|
4276 U489:-5.37|-6.78|
8614 U489:-5.37|-9.81|
7048 U489:-6.57|-5.37|
10738 U489:-6.57|-9.81|
6130 U489:-6.78|-5.37|
978 U489:-8.26|-6.78|
9794 U489:-8.26|-9.61|
10312 U489:-9.81|-5.37|
2096 U489:-9.81|-6.57|
9396 U489:-9.81|-8.26|
10892 U48:*
4398 U48:0.13|
3826 U48:0.19|
96 U48:0.33|
3114 U48:0.58|
9478 U48:0.73|
5014 U48:0.97|
1248 U48:1.04|
11776 U490:*
2946 U490:-3.82|
3672 U490:-5.37|
2098 U490:-6.57|
980 U490:-6.78|
9398 U490:-8.26|
9796 U490:-9.61|
8616 U490:-9.81|
11778 U491:**
2948 U491:-3.82|-6.57|
3674 U491:-5.37|-5.37|
7050 U491:-5.37|-6.57|
4892 U491:-5.37|-9.81|
5520 U491:-6.57|-10.51|
2100 U491:-6.57|-9.81|
4278 U491:-6.78|-10.51|
982 U491:-6.78|-3.82|
9400 U491:-8.26|-6.57|
9798 U491:-9.61|-9.81|
10740 U491:-9.81|-5.37|
8618 U491:-9.81|-6.78|
8926 U491:-9.81|-8.26|
11780 U492:*
4280 U492:-10.51|
984 U492:-3.82|
3676 U492:-5.37|
2950 U492:-6.57|
8620 U492:-6.78|
8928 U492:-8.26|
2102 U492:-9.81|
11782 U493:**
4282 U493:-10.51|-9.81|
986 U493:-3.82|-10.51|
6132 U493:-5.37|-5.37|
3678 U493:-5.37|-6.57|
10314 U493:-5.37|-6.78|
8144 U493:-6.57|-6.57|
9402 U493:-6.57|-6.78|
7052 U493:-6.57|-8.26|
2952 U493:-6.57|-9.81|
8622 U493:-6.78|-9.81|
8930 U493:-8.26|-8.26|
9800 U493:-9.81|-10.51|
4894 U493:-9.81|-6.78|
2104 U493:-9.81|-8.26|
11784 U494:*
988 U494:-10.51|
6134 U494:-5.37|
3680 U494:-6.57|
4896 U494:-6.78|
2106 U494:-8.26|
2954 U494:-9.81|
11786 U495:**
990 U495:-10.51|-8.26|
6136 U495:-5.37|-6.57|
3682 U495:-6.57|-6.57|
8146 U495:-6.57|-9.81|
4898 U495:-6.78|-6.57|
9404 U495:-6.78|-8.26|
7054 U495:-8.26|-10.51|
2108 U495:-8.26|-9.61|
8624 U495:-9.81|-6.57|
5522 U495:-9.81|-6.78|
2956 U495:-9.81|-8.26|
11788 U496:*
7056 U496:-10.51|
3684 U496:-6.57|
5524 U496:-6.78|
992 U496:-8.26|
2110 U496:-9.61|
8148 U496:-9.81|
11790 U497:**
7058 U497:-10.51|-5.37|
6138 U497:-6.57|-10.51|
3686 U497:-6.57|-14.59|
10742 U497:-6.57|-3.82|
5526 U497:-6.78|-3.82|
7588 U497:-6.78|-9.81|
9406 U497:-8.26|-14.59|
2958 U497:-8.26|-6.57|
994 U497:-8.26|-6.78|
10316 U497:-8.26|-8.26|
2112 U497:-9.61|-14.59|
8150 U497:-9.81|-5.37|
11792 U498:*
6140 U498:-10.51|
2114 U498:-14.59|
5528 U498:-3.82|
7060 U498:-5.37|
2960 U498:-6.57|
996 U498:-6.78|
10318 U498:-8.26|
7590 U498:-9.81|
11794 U499:**
6142 U499:-10.51|-5.37|
8626 U499:-10.51|-6.78|
2116 U499:-14.59|-6.78|
4900 U499:-14.59|-8.26|
10744 U499:-3.82|-5.37|
5530 U499:-3.82|-6.57|
7062 U499:-5.37|-5.37|
8152 U499:-5.37|-6.57|
4284 U499:-6.57|-10.51|
2962 U499:-6.57|-6.57|
998 U499:-6.78|-6.57|
10320 U499:-8.26|-9.81|
7592 U499:-9.81|-6.78|
10894 U49:**
4400 U49:0.13|1.04|
7154 U49:0.19|0.19|
3828 U49:0.19|0.73|
98 U49:0.33|0.73|
5640 U49:0.58|0.73|
3116 U49:0.58|1.04|
9480 U49:0.73|0.33|
5016 U49:0.97|0.13|
9110 U49:0.97|0.33|
6258 U49:0.97|0.97|
1250 U49:1.04|0.33|
10804 U4:**
4984 U4:A|A|
8 U4:A|G|
3070 U4:A|T|
1178 U4:C|A|
9450 U4:G|C|
3792 U4:G|G|
4364 U4:G|T|
11796 U500:*
4286 U500:-10.51|
6144 U500:-5.37|
1000 U500:-6.57|
2118 U500:-6.78|
4902 U500:-8.26|
10322 U500:-9.81|
11798 U501:**
4288 U501:-10.51|-6.57|
10746 U501:-5.37|-10.51|
6146 U501:-5.37|-3.82|
7064 U501:-5.37|-9.81|
2964 U501:-6.57|-3.82|
1002 U501:-6.57|-9.81|
2120 U501:-6.78|-3.82|
7594 U501:-6.78|-5.37|
8628 U501:-6.78|-6.57|
4904 U501:-8.26|-9.61|
10324 U501:-9.81|-6.78|
11800 U502:*
10748 U502:-10.51|
2122 U502:-3.82|
7596 U502:-5.37|
4290 U502:-6.57|
10326 U502:-6.78|
4906 U502:-9.61|
1004 U502:-9.81|
11802 U503:**
10750 U503:-10.51|+|
2124 U503:-3.82|+|
7598 U503:-5.37|+|
4292 U503:-6.57|+|
10328 U503:-6.78|+|
4908 U503:-9.61|+|
1006 U503:-9.81|+|
11804 U504:*
1008 U504:+|
11806 U505:**
7600 U505:+|130|
1010 U505:+|20|
2126 U505:+|60|
4294 U505:+|85|
11808 U506:**
2128 U506:+|20|
7602 U506:+|35|
1012 U506:+|60|
4910 U506:+|85|
11810 U507:*
7604 U507:130|
1014 U507:20|
2130 U507:60|
4296 U507:85|
11812 U508:**
7606 U508:130|130|
3688 U508:20|20|
5532 U508:20|35|
1016 U508:20|60|
6638 U508:60|35|
2132 U508:60|60|
9802 U508:60|85|
4298 U508:85|130|
11814 U509:**
7608 U509:130|60|
2966 U509:20|20|
6148 U509:20|35|
1018 U509:20|60|
4912 U509:60|130|
6640 U509:60|20|
2134 U509:60|60|
4300 U509:85|60|
10896 U50:**
4402 U50:0.13|0.73|
7156 U50:0.19|0.98|
3830 U50:0.19|1.04|
9980 U50:0.33|0.19|
100 U50:0.33|0.33|
10394 U50:0.33|0.73|
7704 U50:0.33|0.97|
2334 U50:0.33|1.04|
5642 U50:0.58|0.13|
3118 U50:0.58|0.73|
6728 U50:0.58|0.97|
9482 U50:0.73|0.33|
5018 U50:0.97|0.73|
6260 U50:0.97|1.04|
1252 U50:1.04|0.73|
11816 U510:*
4302 U510:130|
3690 U510:20|
5534 U510:35|
1020 U510:60|
9804 U510:85|
11818 U511:**
7610 U511:130|130|
4304 U511:130|85|
6150 U511:20|20|
3692 U511:20|60|
6642 U511:35|35|
5536 U511:35|60|
2136 U511:60|60|
1022 U511:60|85|
9806 U511:85|60|
11820 U512:**
4306 U512:130|60|
7066 U512:20|35|
6152 U512:20|60|
3694 U512:20|85|
5538 U512:35|20|
6644 U512:35|60|
9408 U512:35|85|
10330 U512:60|130|
10752 U512:60|20|
8154 U512:60|35|
1024 U512:60|60|
2138 U512:60|85|
9808 U512:85|60|
11822 U513:*
7612 U513:130|
6154 U513:20|
6646 U513:35|
2140 U513:60|
1026 U513:85|
11824 U514:**
7614 U514:130|85|
6156 U514:20|60|
6648 U514:35|60|
2142 U514:60|130|
5540 U514:60|60|
8630 U514:60|85|
2968 U514:85|60|
1028 U514:85|85|
11826 U515:**
7616 U515:130|60|
6158 U515:20|60|
6650 U515:35|130|
9410 U515:60|130|
3696 U515:60|60|
2144 U515:60|85|
1030 U515:85|130|
10754 U515:85|20|
8156 U515:85|60|
11828 U516:*
2146 U516:130|
2970 U516:60|
1032 U516:85|
11830 U517:**
2148 U517:130|60|
6652 U517:60|130|
2972 U517:60|20|
5542 U517:60|35|
4308 U517:60|60|
1034 U517:85|130|
8632 U517:85|60|
7618 U517:85|85|
11832 U518:**
2150 U518:130|130|
3698 U518:130|20|
4914 U518:130|60|
8932 U518:60|130|
6160 U518:60|35|
2974 U518:60|60|
1036 U518:85|60|
11834 U519:*
1038 U519:130|
2976 U519:20|
5544 U519:35|
2152 U519:60|
7620 U519:85|
10898 U51:*
5020 U51:0.13|
7158 U51:0.19|
1254 U51:0.33|
102 U51:0.73|
6262 U51:0.97|
3120 U51:1.04|
11836 U520:**
